{"learner":{"attributes":{"scikit_learn":"{\"_estimator_type\": \"regressor\"}"},"feature_names":["pm25_1_day_before","pm25_2_days_before","pm25_3_days_before","temperature_2m_mean","precipitation_sum","wind_speed_10m_max","wind_direction_10m_dominant"],"feature_types":["float","float","float","float","float","float","float"],"gradient_booster":{"model":{"gbtree_model_param":{"num_parallel_tree":"1","num_trees":"100"},"iteration_indptr":[0,1,2,3,4,5,6,7,8,9,10,11,12,13,14,15,16,17,18,19,20,21,22,23,24,25,26,27,28,29,30,31,32,33,34,35,36,37,38,39,40,41,42,43,44,45,46,47,48,49,50,51,52,53,54,55,56,57,58,59,60,61,62,63,64,65,66,67,68,69,70,71,72,73,74,75,76,77,78,79,80,81,82,83,84,85,86,87,88,89,90,91,92,93,94,95,96,97,98,99,100],"tree_info":[0,0,0,0,0,0,0,0,0,0,0,0,0,0,0,0,0,0,0,0,0,0,0,0,0,0,0,0,0,0,0,0,0,0,0,0,0,0,0,0,0,0,0,0,0,0,0,0,0,0,0,0,0,0,0,0,0,0,0,0,0,0,0,0,0,0,0,0,0,0,0,0,0,0,0,0,0,0,0,0,0,0,0,0,0,0,0,0,0,0,0,0,0,0,0,0,0,0,0,0],"trees":[{"base_weights":[3.7897348E-7,-5.7063265E0,1.278701E1,-1.0115841E1,-2.318601E0,8.63591E0,2.36414E1,-1.282955E1,-8.76116E0,-3.9451842E0,1.058832E0,1.2720474E1,5.465329E0,1.9213419E1,3.4188732E1,-8.601066E0,-1.3449509E1,-8.937758E0,-3.1510377E-1,-1.3934367E0,-5.9118996E0,5.8795266E0,-3.248118E-1,1.0122185E0,1.4157025E1,9.350317E0,2.515051E0,2.2094555E1,1.1466171E1,3.5553875E1,1.5136906E0,-6.2103146E-1,-9.298295E0,-1.3527778E1,-5.2876983E0,-9.920935E0,-7.7017345E0,-1.6345981E0,3.8547623E0,7.229415E0,-1.9482236E0,-4.536189E0,-7.69144E0,1.0501675E1,3.4603179E0,2.2383497E0,-2.7369316E0,8.201531E0,-2.9368129E0,9.978978E0,1.880274E1,1.0721929E1,-6.8725157E-1,1.1120206E1,1.0300713E0,2.4395199E1,1.0492135E1,4.3349566E0,1.481503E1,1.720153E1,3.8369408E1,3.1026793E-1,-5.897321E-1,-2.980545E0,-1.1845982E0,-1.1897321E0,-4.0703254E0,-1.9397322E0,-4.397321E-1,-2.253875E0,-3.2254834E0,1.3642868E-1,-2.3775759E0,1.0267925E-2,1.4404019E0,4.0890307E0,-4.328868E-1,-1.0986695E0,2.7353076E-2,-1.0074688E0,-2.6701488E0,-1.4274776E0,-2.7841096E0,3.764287E-1,4.0438247E0,-1.2595981E0,1.3098513E0,-8.20491E-1,1.1344956E0,-8.480642E-2,-2.3694835E0,6.1026794E-1,2.6671133E0,-2.759598E0,-4.1517735E-2,3.9022849E0,2.257046E0,1.1369058E-1,5.806588E0,3.6637166E0,5.9587926E-1,2.3136907E0,-9.415178E-1,3.7075632E0,-1.4897321E0,-8.181027E-2,3.111264E0,7.464256E0,2.0136907E0,3.642033E0,-1.6397321E0,-6.570312E-1,4.890402E0,4.819395E0,7.136906E-1,6.376429E0,1.4136906E0,8.418957E0,1.28767E1],"categories":[],"categories_nodes":[],"categories_segments":[],"categories_sizes":[],"default_left":[0,0,0,0,0,0,0,0,0,0,0,0,0,0,0,0,0,0,0,0,0,0,0,0,0,0,0,0,0,0,0,0,0,0,0,0,0,0,0,0,0,0,0,0,0,0,0,0,0,0,0,0,0,0,0,0,0,0,0,0,0,0,0,0,0,0,0,0,0,0,0,0,0,0,0,0,0,0,0,0,0,0,0,0,0,0,0,0,0,0,0,0,0,0,0,0,0,0,0,0,0,0,0,0,0,0,0,0,0,0,0,0,0,0,0,0,0,0,0],"id":0,"left_children":[1,3,5,7,9,11,13,15,17,19,21,23,25,27,29,31,33,35,37,39,41,43,45,47,49,51,53,55,57,59,-1,61,63,65,67,69,71,-1,73,75,77,79,81,83,85,87,89,91,93,95,97,99,101,103,105,107,109,111,113,115,117,-1,-1,-1,-1,-1,-1,-1,-1,-1,-1,-1,-1,-1,-1,-1,-1,-1,-1,-1,-1,-1,-1,-1,-1,-1,-1,-1,-1,-1,-1,-1,-1,-1,-1,-1,-1,-1,-1,-1,-1,-1,-1,-1,-1,-1,-1,-1,-1,-1,-1,-1,-1,-1,-1,-1,-1,-1,-1],"loss_changes":[1.2273026E5,1.7349703E4,2.3180758E4,1.7440859E3,3.62451E3,4.812797E3,6.0216953E3,3.1948633E2,5.0431445E2,2.225022E3,1.4359866E3,2.7440664E3,2.429308E3,2.0457109E3,1.4517695E3,1.2775928E2,1.981836E1,3.2826172E2,1.9225323E2,9.469342E2,5.795918E2,5.0039392E2,1.0448119E3,5.635119E2,2.6462285E3,1.2739917E3,1.5602983E3,1.7193242E3,6.5222046E2,1.3551836E3,0E0,8.710739E0,3.5722168E1,8.984375E-2,4.0301895E0,2.832754E2,2.8071973E2,0E0,1.7917831E1,6.8577716E2,6.4351495E2,7.104109E2,4.591875E2,4.236449E2,2.4728314E2,6.397202E2,1.0998137E3,1.1653259E1,2.2652966E2,4.8964355E2,6.8491406E2,1.030375E3,2.7126608E2,4.199275E2,1.2927362E3,3.5684375E2,4.3453052E2,8.945967E2,2.7258984E2,2.541936E2,3.439375E2,0E0,0E0,0E0,0E0,0E0,0E0,0E0,0E0,0E0,0E0,0E0,0E0,0E0,0E0,0E0,0E0,0E0,0E0,0E0,0E0,0E0,0E0,0E0,0E0,0E0,0E0,0E0,0E0,0E0,0E0,0E0,0E0,0E0,0E0,0E0,0E0,0E0,0E0,0E0,0E0,0E0,0E0,0E0,0E0,0E0,0E0,0E0,0E0,0E0,0E0,0E0,0E0,0E0,0E0,0E0,0E0,0E0,0E0],"parents":[2147483647,0,0,1,1,2,2,3,3,4,4,5,5,6,6,7,7,8,8,9,9,10,10,11,11,12,12,13,13,14,14,15,15,16,16,17,17,18,18,19,19,20,20,21,21,22,22,23,23,24,24,25,25,26,26,27,27,28,28,29,29,31,31,32,32,33,33,34,34,35,35,36,36,38,38,39,39,40,40,41,41,42,42,43,43,44,44,45,45,46,46,47,47,48,48,49,49,50,50,51,51,52,52,53,53,54,54,55,55,56,56,57,57,58,58,59,59,60,60],"right_children":[2,4,6,8,10,12,14,16,18,20,22,24,26,28,30,32,34,36,38,40,42,44,46,48,50,52,54,56,58,60,-1,62,64,66,68,70,72,-1,74,76,78,80,82,84,86,88,90,92,94,96,98,100,102,104,106,108,110,112,114,116,118,-1,-1,-1,-1,-1,-1,-1,-1,-1,-1,-1,-1,-1,-1,-1,-1,-1,-1,-1,-1,-1,-1,-1,-1,-1,-1,-1,-1,-1,-1,-1,-1,-1,-1,-1,-1,-1,-1,-1,-1,-1,-1,-1,-1,-1,-1,-1,-1,-1,-1,-1,-1,-1,-1,-1,-1,-1,-1],"split_conditions":[2.9E1,1.6E1,4.8E1,1.1E1,2.4E1,1.901334E2,6.2E1,1.4644169E0,2.0549833E1,1.6375053E1,1.3527572E1,4.3548153E1,1E-1,1.964228E1,2.3185787E1,1.1200571E1,4.8E1,1.4E1,1E-1,1.1E1,2.4963947E2,2.320667E0,2.246E2,1.2181625E1,3.7E1,2.433664E1,1.3104198E1,2.5949857E2,3.2E1,2.3E1,1.5136906E0,1E1,5.4358345E-1,7.908339E0,1.9E1,2.1040003E0,8E0,-1.6345981E0,1.4E1,1.9862555E2,2E1,4.9999995E0,2.9373333E0,6.049757E1,3.883167E0,8.1320404E1,7E-1,3.2E1,2.5E1,2.9E1,9.3876505E0,1.6022749E1,2.1957286E2,4.5E1,4.4E1,6.5E1,6.3E1,2.3803596E1,6E1,6.6E1,6.6E1,3.1026793E-1,-5.897321E-1,-2.980545E0,-1.1845982E0,-1.1897321E0,-4.0703254E0,-1.9397322E0,-4.397321E-1,-2.253875E0,-3.2254834E0,1.3642868E-1,-2.3775759E0,1.0267925E-2,1.4404019E0,4.0890307E0,-4.328868E-1,-1.0986695E0,2.7353076E-2,-1.0074688E0,-2.6701488E0,-1.4274776E0,-2.7841096E0,3.764287E-1,4.0438247E0,-1.2595981E0,1.3098513E0,-8.20491E-1,1.1344956E0,-8.480642E-2,-2.3694835E0,6.1026794E-1,2.6671133E0,-2.759598E0,-4.1517735E-2,3.9022849E0,2.257046E0,1.1369058E-1,5.806588E0,3.6637166E0,5.9587926E-1,2.3136907E0,-9.415178E-1,3.7075632E0,-1.4897321E0,-8.181027E-2,3.111264E0,7.464256E0,2.0136907E0,3.642033E0,-1.6397321E0,-6.570312E-1,4.890402E0,4.819395E0,7.136906E-1,6.376429E0,1.4136906E0,8.418957E0,1.28767E1],"split_indices":[0,0,0,0,0,6,0,3,3,5,5,6,4,5,5,5,2,0,4,1,6,3,6,5,0,5,5,6,2,2,0,0,3,6,1,3,1,0,0,6,0,4,3,6,3,6,4,0,1,1,5,3,6,0,0,1,1,5,0,0,0,0,0,0,0,0,0,0,0,0,0,0,0,0,0,0,0,0,0,0,0,0,0,0,0,0,0,0,0,0,0,0,0,0,0,0,0,0,0,0,0,0,0,0,0,0,0,0,0,0,0,0,0,0,0,0,0,0,0],"split_type":[0,0,0,0,0,0,0,0,0,0,0,0,0,0,0,0,0,0,0,0,0,0,0,0,0,0,0,0,0,0,0,0,0,0,0,0,0,0,0,0,0,0,0,0,0,0,0,0,0,0,0,0,0,0,0,0,0,0,0,0,0,0,0,0,0,0,0,0,0,0,0,0,0,0,0,0,0,0,0,0,0,0,0,0,0,0,0,0,0,0,0,0,0,0,0,0,0,0,0,0,0,0,0,0,0,0,0,0,0,0,0,0,0,0,0,0,0,0,0],"sum_hessian":[1.68E3,1.162E3,5.18E2,5.04E2,6.58E2,3.76E2,1.42E2,1.65E2,3.39E2,4.44E2,2.14E2,1.63E2,2.13E2,1.02E2,4E1,2.3E1,1.42E2,3.32E2,7E0,1.94E2,2.5E2,4.7E1,1.67E2,1.8E1,1.45E2,9.1E1,1.22E2,7.3E1,2.9E1,3.8E1,2E0,2E0,2.1E1,1.4E2,2E0,1.81E2,1.51E2,3E0,4E0,1.1E1,1.83E2,1.43E2,1.07E2,1.5E1,3.2E1,8.1E1,8.6E1,6E0,1.2E1,7.8E1,6.7E1,8E1,1.1E1,1.7E1,1.05E2,6E1,1.3E1,1E1,1.9E1,6E0,3.2E1,1E0,1E0,1.8E1,3E0,1E0,1.39E2,1E0,1E0,4.9E1,1.32E2,4E0,1.47E2,1E0,3E0,6E0,5E0,9.9E1,8.4E1,1.14E2,2.9E1,3.9E1,6.8E1,4E0,1.1E1,3E0,2.9E1,1.9E1,6.2E1,5.9E1,2.7E1,1E0,5E0,3E0,9E0,3.3E1,4.5E1,2E0,6.5E1,6.8E1,1.2E1,2E0,9E0,1.6E1,1E0,9.3E1,1.2E1,5.8E1,2E0,1.2E1,1E0,7E0,3E0,1.7E1,2E0,4E0,2E0,1.2E1,2E1],"tree_param":{"num_deleted":"0","num_feature":"7","num_nodes":"119","size_leaf_vector":"1"}},{"base_weights":[3.1123852E-2,-3.3949482E0,1.0833748E1,-6.826993E0,-6.1829674E-1,8.264729E0,2.0128962E1,-7.9613833E0,-5.0210323E0,-2.2949862E0,1.946851E0,9.415323E0,2.3349352E-1,2.3966393E1,1.3442191E1,-5.8881087E0,-8.536392E0,-3.504347E0,-6.079089E0,8.8633394E-1,-3.3188863E0,4.182751E0,-1.9387923E-1,1.0452507E1,3.3137717E0,4.9633756E0,-5.504442E0,2.8811962E1,1.5608656E1,1.5195908E1,2.7255306E0,-6.843567E-2,-6.82852E0,-6.971783E0,-9.993793E0,-4.79123E0,-1.3351808E-1,-4.402903E0,-8.021568E0,-3.9129797E-1,4.783419E0,-1.7003869E0,-5.18501E0,-1.3943326E-1,5.1964107E0,1.221378E0,-3.7790713E0,7.295357E0,1.1946022E1,5.099384E-1,9.529251E0,1.8868652E-1,1.0154974E1,-9.07913E0,-2.0792942E0,1.0077114E1,3.0349543E1,1.7234554E1,3.9834704E0,6.964033E0,1.6620714E1,-2.9319997E0,2.8081183E0,1.0444212E0,-1.2595528E0,-1.7862957E0,-3.1235802E0,-2.1385076E0,-3.0295802E-2,-3.0324957E0,-4.4121286E-1,-1.7315317E0,-5.9639875E-2,3.6718023E0,-4.8387614E-1,-8.01256E-1,-2.265697E0,-1.3346472E0,-2.572706E0,-7.7333766E-1,7.9281527E-1,2.2277248E0,3.2456675E-1,-6.86764E-1,5.772419E-1,-1.9342699E0,-1.0574147E0,5.767136E-1,-2.3028514E0,-1.9132085E0,1.6401845E0,1.2622888E0,-5.194721E-1,9.431933E-1,-1.6657975E0,3.987012E0,1.7048091E0,4.6252418E0,2.9462726E0,-1.8093275E0,1.2246025E0,5.0799255E0,1.6844378E0,-1.8221055E0,8.024299E-1,3.994225E0,3.894034E-1,-3.294841E0,9.225395E-1,-1.2591004E0,3.904064E-1,8.6589605E-1,4.747425E0,2.4853258E0,9.488926E0,5.4150295E0,3.832143E-1,2.49063E0,-6.7031674E-2,1.208397E-1,3.0431852E0,1.541751E0,5.2292676E0,-1.4919753E0,4.78763E-1],"categories":[],"categories_nodes":[],"categories_segments":[],"categories_sizes":[],"default_left":[0,0,0,0,0,0,0,0,0,0,0,0,0,0,0,0,0,0,0,0,0,0,0,0,0,0,0,0,0,0,0,0,0,0,0,0,0,0,0,0,0,0,0,0,0,0,0,0,0,0,0,0,0,0,0,0,0,0,0,0,0,0,0,0,0,0,0,0,0,0,0,0,0,0,0,0,0,0,0,0,0,0,0,0,0,0,0,0,0,0,0,0,0,0,0,0,0,0,0,0,0,0,0,0,0,0,0,0,0,0,0,0,0,0,0,0,0,0,0,0,0,0,0,0,0],"id":1,"left_children":[1,3,5,7,9,11,13,15,17,19,21,23,25,27,29,31,33,35,37,39,41,43,45,47,49,51,53,55,57,59,61,63,65,67,69,71,73,75,77,79,81,83,85,87,89,91,93,95,97,99,101,103,105,107,109,111,113,115,117,119,121,123,-1,-1,-1,-1,-1,-1,-1,-1,-1,-1,-1,-1,-1,-1,-1,-1,-1,-1,-1,-1,-1,-1,-1,-1,-1,-1,-1,-1,-1,-1,-1,-1,-1,-1,-1,-1,-1,-1,-1,-1,-1,-1,-1,-1,-1,-1,-1,-1,-1,-1,-1,-1,-1,-1,-1,-1,-1,-1,-1,-1,-1,-1,-1],"loss_changes":[6.225155E4,1.2165068E4,9.504871E3,1.1298125E3,3.0452441E3,2.945584E3,1.9102578E3,3.6579688E2,3.365542E2,1.3970891E3,1.3410193E3,1.7309941E3,1.1400509E3,1.7371777E3,5.975791E2,4.3189038E2,5.482754E2,4.071194E2,3.8795605E2,5.24671E2,9.697676E2,6.009524E2,7.352672E2,1.0350801E3,7.270817E2,5.682142E2,2.1375464E2,6.4477344E2,3.4717725E2,2.2438818E2,2.5266632E2,1.905499E2,1.5102246E2,1.4343701E2,1.1983789E2,3.050614E2,5.1396094E2,3.7258545E2,7.8651855E1,5.375209E2,2.4626337E2,3.7789276E2,2.917063E2,4.3431857E2,3.8285132E2,9.2438434E2,5.2088116E2,6.882002E2,1.0289414E3,7.255693E2,2.816902E2,2.186395E2,2.904994E2,2.420133E2,8.421324E1,1.1964493E2,5.854043E2,2.2420459E2,7.4527336E1,1.2109915E2,1.3366992E2,4.4906822E1,0E0,0E0,0E0,0E0,0E0,0E0,0E0,0E0,0E0,0E0,0E0,0E0,0E0,0E0,0E0,0E0,0E0,0E0,0E0,0E0,0E0,0E0,0E0,0E0,0E0,0E0,0E0,0E0,0E0,0E0,0E0,0E0,0E0,0E0,0E0,0E0,0E0,0E0,0E0,0E0,0E0,0E0,0E0,0E0,0E0,0E0,0E0,0E0,0E0,0E0,0E0,0E0,0E0,0E0,0E0,0E0,0E0,0E0,0E0,0E0,0E0,0E0,0E0],"parents":[2147483647,0,0,1,1,2,2,3,3,4,4,5,5,6,6,7,7,8,8,9,9,10,10,11,11,12,12,13,13,14,14,15,15,16,16,17,17,18,18,19,19,20,20,21,21,22,22,23,23,24,24,25,25,26,26,27,27,28,28,29,29,30,30,31,31,32,32,33,33,34,34,35,35,36,36,37,37,38,38,39,39,40,40,41,41,42,42,43,43,44,44,45,45,46,46,47,47,48,48,49,49,50,50,51,51,52,52,53,53,54,54,55,55,56,56,57,57,58,58,59,59,60,60,61,61],"right_children":[2,4,6,8,10,12,14,16,18,20,22,24,26,28,30,32,34,36,38,40,42,44,46,48,50,52,54,56,58,60,62,64,66,68,70,72,74,76,78,80,82,84,86,88,90,92,94,96,98,100,102,104,106,108,110,112,114,116,118,120,122,124,-1,-1,-1,-1,-1,-1,-1,-1,-1,-1,-1,-1,-1,-1,-1,-1,-1,-1,-1,-1,-1,-1,-1,-1,-1,-1,-1,-1,-1,-1,-1,-1,-1,-1,-1,-1,-1,-1,-1,-1,-1,-1,-1,-1,-1,-1,-1,-1,-1,-1,-1,-1,-1,-1,-1,-1,-1,-1,-1,-1,-1,-1,-1],"split_conditions":[3.3E1,1.7E1,5.3E1,1.4E1,2.5E1,2.9792764E2,1.9862555E2,2.3623333E0,2.2376671E2,1.4113653E1,2.1480249E2,2.2314194E1,1.658346E1,6E-1,2.4999998E0,1.5273505E1,2.4907835E2,1.9392032E2,9.289416E0,2.8E1,2.1E1,6.049757E1,1.1E0,4.183166E0,2.8112288E1,3.4E1,2.0966715E1,1.030883E1,1.8384108E2,3.1E1,4.9E1,2E1,2.4693481E1,2.9179993E1,1.0999999E1,1.7097748E1,1.9862555E2,3E-1,1.4241629E1,2.1E1,3.4E1,1.8062332E1,2.7E1,1.9134262E1,1.5E1,5.5269165E0,1.4154915E1,1.2287555E1,9.549834E0,2.3E1,3.5E1,3.5E1,4.6E1,3.4857693E2,1.9519166E0,6.1E1,2.8525892E1,6.6E1,4E1,6E1,2.4E1,6.1E1,2.8081183E0,1.0444212E0,-1.2595528E0,-1.7862957E0,-3.1235802E0,-2.1385076E0,-3.0295802E-2,-3.0324957E0,-4.4121286E-1,-1.7315317E0,-5.9639875E-2,3.6718023E0,-4.8387614E-1,-8.01256E-1,-2.265697E0,-1.3346472E0,-2.572706E0,-7.7333766E-1,7.9281527E-1,2.2277248E0,3.2456675E-1,-6.86764E-1,5.772419E-1,-1.9342699E0,-1.0574147E0,5.767136E-1,-2.3028514E0,-1.9132085E0,1.6401845E0,1.2622888E0,-5.194721E-1,9.431933E-1,-1.6657975E0,3.987012E0,1.7048091E0,4.6252418E0,2.9462726E0,-1.8093275E0,1.2246025E0,5.0799255E0,1.6844378E0,-1.8221055E0,8.024299E-1,3.994225E0,3.894034E-1,-3.294841E0,9.225395E-1,-1.2591004E0,3.904064E-1,8.6589605E-1,4.747425E0,2.4853258E0,9.488926E0,5.4150295E0,3.832143E-1,2.49063E0,-6.7031674E-2,1.208397E-1,3.0431852E0,1.541751E0,5.2292676E0,-1.4919753E0,4.78763E-1],"split_indices":[0,0,0,0,0,6,6,3,6,5,6,5,5,4,4,5,6,6,3,2,1,6,4,3,5,2,5,5,6,1,1,2,5,5,4,3,6,4,5,0,1,3,2,5,1,3,5,5,3,2,0,0,2,6,3,0,6,2,1,0,2,0,0,0,0,0,0,0,0,0,0,0,0,0,0,0,0,0,0,0,0,0,0,0,0,0,0,0,0,0,0,0,0,0,0,0,0,0,0,0,0,0,0,0,0,0,0,0,0,0,0,0,0,0,0,0,0,0,0,0,0,0,0,0,0],"split_type":[0,0,0,0,0,0,0,0,0,0,0,0,0,0,0,0,0,0,0,0,0,0,0,0,0,0,0,0,0,0,0,0,0,0,0,0,0,0,0,0,0,0,0,0,0,0,0,0,0,0,0,0,0,0,0,0,0,0,0,0,0,0,0,0,0,0,0,0,0,0,0,0,0,0,0,0,0,0,0,0,0,0,0,0,0,0,0,0,0,0,0,0,0,0,0,0,0,0,0,0,0,0,0,0,0,0,0,0,0,0,0,0,0,0,0,0,0,0,0,0,0,0,0,0,0],"sum_hessian":[1.68E3,1.276E3,4.04E2,5.7E2,7.06E2,3.18E2,8.6E1,3.48E2,2.22E2,4.27E2,2.79E2,2.78E2,4E1,5.3E1,3.3E1,7.8E1,2.7E2,9.3E1,1.29E2,1.04E2,3.23E2,1.36E2,1.43E2,2.37E2,4.1E1,2.2E1,1.8E1,3.2E1,2.1E1,2.8E1,5E0,1.1E1,6.7E1,1.33E2,1.37E2,6.7E1,2.6E1,7.1E1,5.8E1,7.9E1,2.5E1,1.74E2,1.49E2,2.6E1,1.1E2,1.03E2,4E1,7.8E1,1.59E2,2.9E1,1.2E1,1.2E1,1E1,8E0,1E1,3E0,2.9E1,1.8E1,3E0,5E0,2.3E1,3E0,2E0,6E0,5E0,5.6E1,1.1E1,1.3E2,3E0,1.35E2,2E0,5.5E1,1.2E1,2E0,2.4E1,4.7E1,2.4E1,9E0,4.9E1,4.6E1,3.3E1,1.4E1,1.1E1,1.5E2,2.4E1,8.3E1,6.6E1,2.1E1,5E0,2E0,1.08E2,5.1E1,5.2E1,8E0,3.2E1,1.5E1,6.3E1,5.8E1,1.01E2,1E1,1.9E1,3E0,9E0,3E0,9E0,7E0,3E0,7E0,1E0,6E0,4E0,2E0,1E0,2E0,2.7E1,1.7E1,1E0,1E0,2E0,2E0,3E0,2E0,2.1E1,2E0,1E0],"tree_param":{"num_deleted":"0","num_feature":"7","num_nodes":"125","size_leaf_vector":"1"}},{"base_weights":[4.4542182E-2,-2.8558307E0,6.5437503E0,-4.8075204E0,-9.7173166E-1,4.753003E0,1.3907902E1,-6.5473633E0,-4.084315E0,4.236715E-1,-2.4019182E0,7.342584E0,3.0077548E0,1.1173618E1,1.9721653E1,-4.7357645E0,-7.0481834E0,-2.6469371E0,-4.69246E0,-2.3203142E0,1.2041965E0,6.3576937E0,-2.76615E0,-1.4348751E0,8.538423E0,8.777067E0,2.2181265E0,1.3618952E1,5.8173847E0,6.2768106E0,2.1481007E1,-3.2689197E0,-5.8373976E0,-6.263552E0,-8.31071E0,6.5510616E-2,-4.383777E0,-4.1071544E0,-6.902321E0,4.2780223E0,-3.0394623E0,5.905938E0,6.662437E-1,3.9045188E0,3.7247136E0,-6.754071E-1,-4.059971E0,2.887583E0,-4.917351E0,5.4626727E0,1.1084526E1,1.2147975E1,1.8502282E0,3.102683E0,-1.4509256E0,1.5109929E1,2.7275238E0,1.762568E0,8.587785E0,2.8297677E0,1.028792E0,2.2939606E1,6.497042E-1,-1.0990795E0,5.7529396E-1,-1.9251775E0,-6.574517E-2,-1.9892095E0,-1.3344364E0,-2.6009755E0,-7.1146333E-1,5.05096E-1,-1.0131412E0,-1.4640973E0,1.6950028E0,-1.9742304E0,-9.833739E-1,-1.683021E0,-2.777871E0,-1.1627575E0,1.8848938E0,-1.0999743E0,9.9606574E-1,-6.503228E-1,2.8073728E0,-4.3967173E-1,6.230093E-1,3.882997E-1,2.1140108E0,9.1484554E-2,-2.2048807E0,-9.989206E-1,-2.0021472E0,1.1646128E0,-2.1805096E-1,-2.369417E0,2.505746E-1,1.2833089E0,4.189023E0,2.630806E-1,3.5260022E0,9.687701E-1,4.25275E0,1.186493E0,-1.524228E0,1.3725227E0,-1.2528679E-1,1.8344184E0,-9.1425854E-1,5.683632E0,3.433171E0,-2.5576394E0,2.6801438E0,-1.0124326E-1,3.4144537E0,-4.5819438E-1,3.1202734E0,-1.1404009E-1,5.7699656E-1,5.1905837E0,8.899771E0],"categories":[],"categories_nodes":[],"categories_segments":[],"categories_sizes":[],"default_left":[0,0,0,0,0,0,0,0,0,0,0,0,0,0,0,0,0,0,0,0,0,0,0,0,0,0,0,0,0,0,0,0,0,0,0,0,0,0,0,0,0,0,0,0,0,0,0,0,0,0,0,0,0,0,0,0,0,0,0,0,0,0,0,0,0,0,0,0,0,0,0,0,0,0,0,0,0,0,0,0,0,0,0,0,0,0,0,0,0,0,0,0,0,0,0,0,0,0,0,0,0,0,0,0,0,0,0,0,0,0,0,0,0,0,0,0,0,0,0,0,0],"id":2,"left_children":[1,3,5,7,9,11,13,15,17,19,21,23,25,27,29,31,33,35,37,39,41,43,45,47,49,51,53,55,57,59,61,63,65,67,69,71,73,75,77,79,81,83,85,-1,87,89,91,93,95,97,99,101,103,105,107,109,111,113,115,-1,117,119,-1,-1,-1,-1,-1,-1,-1,-1,-1,-1,-1,-1,-1,-1,-1,-1,-1,-1,-1,-1,-1,-1,-1,-1,-1,-1,-1,-1,-1,-1,-1,-1,-1,-1,-1,-1,-1,-1,-1,-1,-1,-1,-1,-1,-1,-1,-1,-1,-1,-1,-1,-1,-1,-1,-1,-1,-1,-1,-1],"loss_changes":[3.170575E4,4.271885E3,6.778123E3,6.9172754E2,1.18446E3,1.8715693E3,1.3851777E3,1.1723047E2,3.4247803E2,6.4746063E2,9.5241174E2,1.7756504E3,1.1285457E3,8.507158E2,5.984492E2,4.3939026E1,7.474463E1,5.797511E2,3.3898926E2,3.3093008E2,5.904543E2,1.6186725E2,7.600813E2,3.3030917E2,1.0984639E3,6.780156E2,7.2824475E2,7.382529E2,2.5446661E2,7.310298E1,7.11E2,4.591899E1,6.700745E1,2.5827637E1,7.7575195E1,2.7865002E2,4.012422E2,4.440564E2,1.24730225E2,1.387892E2,2.554585E2,6.8916833E2,6.404912E2,0E0,7.161621E1,7.1543744E2,3.0989648E2,3.876555E1,2.1235849E2,6.353181E2,5.358506E2,3.1594165E2,1.8056212E2,9.348994E2,5.5012585E2,3.7375586E2,5.650399E2,2.2604341E2,2.7264465E2,0E0,4.5120974E0,4.3473633E2,0E0,0E0,0E0,0E0,0E0,0E0,0E0,0E0,0E0,0E0,0E0,0E0,0E0,0E0,0E0,0E0,0E0,0E0,0E0,0E0,0E0,0E0,0E0,0E0,0E0,0E0,0E0,0E0,0E0,0E0,0E0,0E0,0E0,0E0,0E0,0E0,0E0,0E0,0E0,0E0,0E0,0E0,0E0,0E0,0E0,0E0,0E0,0E0,0E0,0E0,0E0,0E0,0E0,0E0,0E0,0E0,0E0,0E0,0E0],"parents":[2147483647,0,0,1,1,2,2,3,3,4,4,5,5,6,6,7,7,8,8,9,9,10,10,11,11,12,12,13,13,14,14,15,15,16,16,17,17,18,18,19,19,20,20,21,21,22,22,23,23,24,24,25,25,26,26,27,27,28,28,29,29,30,30,31,31,32,32,33,33,34,34,35,35,36,36,37,37,38,38,39,39,40,40,41,41,42,42,44,44,45,45,46,46,47,47,48,48,49,49,50,50,51,51,52,52,53,53,54,54,55,55,56,56,57,57,58,58,60,60,61,61],"right_children":[2,4,6,8,10,12,14,16,18,20,22,24,26,28,30,32,34,36,38,40,42,44,46,48,50,52,54,56,58,60,62,64,66,68,70,72,74,76,78,80,82,84,86,-1,88,90,92,94,96,98,100,102,104,106,108,110,112,114,116,-1,118,120,-1,-1,-1,-1,-1,-1,-1,-1,-1,-1,-1,-1,-1,-1,-1,-1,-1,-1,-1,-1,-1,-1,-1,-1,-1,-1,-1,-1,-1,-1,-1,-1,-1,-1,-1,-1,-1,-1,-1,-1,-1,-1,-1,-1,-1,-1,-1,-1,-1,-1,-1,-1,-1,-1,-1,-1,-1,-1,-1],"split_conditions":[2.9E1,1.7E1,5.1E1,1.1E1,2.2313316E2,1.8128368E2,6.5E1,3.3290002E0,1.5484185E1,6.781824E1,1.0990322E1,4.7587147E1,1.2313894E1,1.9469975E1,2.3E1,1.9171478E1,2.779983E2,9.664418E0,2.9656497E2,1.030883E1,9.248333E-1,1.4E1,2.8644168E0,1.3722565E1,3.7E1,3.3E1,3.014784E2,6.5E1,4.9E1,6.6E1,2.3185787E1,1.8888851E1,3.0581665E0,3.6000001E0,3.5577484E2,2E1,1.0999999E1,1.3E1,8.000001E-1,1.1E1,3.3E1,1.4615042E2,2.1E1,3.9045188E0,3.5E1,1.2000002E0,3.002615E2,3.7E1,1.5064415E1,1.748402E2,1.7E1,2.300188E2,6E-1,1.1479E1,1.3104198E1,5.7E1,5.6E1,8.9956665E0,1.4357127E2,2.8297677E0,7.5E1,1.061025E1,6.497042E-1,-1.0990795E0,5.7529396E-1,-1.9251775E0,-6.574517E-2,-1.9892095E0,-1.3344364E0,-2.6009755E0,-7.1146333E-1,5.05096E-1,-1.0131412E0,-1.4640973E0,1.6950028E0,-1.9742304E0,-9.833739E-1,-1.683021E0,-2.777871E0,-1.1627575E0,1.8848938E0,-1.0999743E0,9.9606574E-1,-6.503228E-1,2.8073728E0,-4.3967173E-1,6.230093E-1,3.882997E-1,2.1140108E0,9.1484554E-2,-2.2048807E0,-9.989206E-1,-2.0021472E0,1.1646128E0,-2.1805096E-1,-2.369417E0,2.505746E-1,1.2833089E0,4.189023E0,2.630806E-1,3.5260022E0,9.687701E-1,4.25275E0,1.186493E0,-1.524228E0,1.3725227E0,-1.2528679E-1,1.8344184E0,-9.1425854E-1,5.683632E0,3.433171E0,-2.5576394E0,2.6801438E0,-1.0124326E-1,3.4144537E0,-4.5819438E-1,3.1202734E0,-1.1404009E-1,5.7699656E-1,5.1905837E0,8.899771E0],"split_indices":[0,0,0,0,6,6,0,3,5,6,5,6,5,5,2,5,6,3,6,5,3,1,3,5,0,1,6,1,1,0,5,5,3,4,6,2,4,2,4,2,2,6,0,0,2,4,6,1,3,6,2,6,4,3,5,0,2,3,6,0,0,3,0,0,0,0,0,0,0,0,0,0,0,0,0,0,0,0,0,0,0,0,0,0,0,0,0,0,0,0,0,0,0,0,0,0,0,0,0,0,0,0,0,0,0,0,0,0,0,0,0,0,0,0,0,0,0,0,0,0,0],"split_type":[0,0,0,0,0,0,0,0,0,0,0,0,0,0,0,0,0,0,0,0,0,0,0,0,0,0,0,0,0,0,0,0,0,0,0,0,0,0,0,0,0,0,0,0,0,0,0,0,0,0,0,0,0,0,0,0,0,0,0,0,0,0,0,0,0,0,0,0,0,0,0,0,0,0,0,0,0,0,0,0,0,0,0,0,0,0,0,0,0,0,0,0,0,0,0,0,0,0,0,0,0,0,0,0,0,0,0,0,0,0,0,0,0,0,0,0,0,0,0,0,0],"sum_hessian":[1.68E3,1.162E3,5.18E2,5.7E2,5.92E2,4.18E2,1E2,1.65E2,4.05E2,3E2,2.92E2,1.67E2,2.51E2,7E1,3E1,3.8E1,1.27E2,1.22E2,2.83E2,6.6E1,2.34E2,1.1E1,2.81E2,2E1,1.47E2,2.9E1,2.22E2,4.7E1,2.3E1,4E0,2.6E1,1.8E1,2E1,8.2E1,4.5E1,4.8E1,7.4E1,2.26E2,5.7E1,6E0,6E1,2.3E1,2.11E2,2E0,9E0,1.08E2,1.73E2,9E0,1.1E1,6.8E1,7.9E1,1.9E1,1E1,1.79E2,4.3E1,4.1E1,6E0,1E1,1.3E1,2E0,2E0,2.4E1,2E0,1.7E1,1E0,1.8E1,2E0,6.6E1,1.6E1,4.2E1,3E0,3.3E1,1.5E1,7.1E1,3E0,5.5E1,1.71E2,3.9E1,1.8E1,1E0,5E0,5.5E1,5E0,7E0,1.6E1,8.4E1,1.27E2,6E0,3E0,9.5E1,1.3E1,1.37E2,3.6E1,7E0,2E0,7E0,4E0,6.1E1,7E0,5E0,7.4E1,4E0,1.5E1,8E0,2E0,1.26E2,5.3E1,7E0,3.6E1,1.8E1,2.3E1,2E0,4E0,9E0,1E0,2E0,1.1E1,1E0,1E0,1.5E1,9E0],"tree_param":{"num_deleted":"0","num_feature":"7","num_nodes":"121","size_leaf_vector":"1"}},{"base_weights":[5.2471865E-2,-1.656289E0,5.828303E0,-2.9321256E0,4.1932482E-1,4.8776774E0,1.3662128E1,-4.0291414E0,-2.0860932E0,1.0352249E0,-2.7885973E0,6.907375E0,2.9009926E0,9.0655774E-1,1.42930155E1,-4.753477E0,-3.3383863E0,-1.0906439E0,-2.9618597E0,4.06973E0,5.713216E-1,-4.0832305E0,8.101284E-1,-8.3120143E-1,7.72207E0,5.0609508E0,9.188695E-1,-1.4341736E-1,5.5136836E-1,1.48755E1,7.0340884E-1,-4.902072E0,-1.1688156E0,-2.5771172E0,-4.669023E0,-3.553708E0,-3.227232E-1,3.4353418E0,-3.1952484E0,6.7208476E0,3.6533442E-1,1.816701E0,-6.168691E-1,-1.759921E0,-6.2704325E0,3.2926946E0,-2.4982204E0,-2.6382985E0,1.7104317E0,9.595276E0,5.174444E0,6.1264873E0,-5.827458E0,-9.6199286E-1,5.319514E0,1.7737957E1,1.0009904E1,-1.2564628E0,-1.6666248E0,-1.1564056E0,1.3777587E0,-4.7122663E-1,-1.3500762E0,-1.5279015E0,-1.2853771E-1,2.3981467E-1,-1.2132745E0,2.4613781E-1,-4.4695577E-1,-1.8363286E-2,2.3464007E0,7.476977E-1,-1.0067558E0,8.68547E-1,2.6614513E0,5.0631094E-1,-1.4991621E0,-8.649919E-1,8.5031897E-1,-2.9928562E-1,1.8552258E0,-1.4355046E-1,-2.0417547E0,-2.062489E0,4.3859997E-1,1.9914674E0,-1.5696594E-1,7.0634884E-1,-1.2017136E0,6.592418E-1,-1.2470747E0,1.2454194E0,3.4809718E0,-2.751532E0,1.7270912E0,2.0550227E0,-2.9121545E-1,-2.465108E0,1.6349276E0,-1.2361591E0,4.4213563E-1,1.9473184E0,-9.9976075E-1,5.6667037E0,1.2454804E0,3.4149945E0,7.920552E-2],"categories":[],"categories_nodes":[],"categories_segments":[],"categories_sizes":[],"default_left":[0,0,0,0,0,0,0,0,0,0,0,0,0,0,0,0,0,0,0,0,0,0,0,0,0,0,0,0,0,0,0,0,0,0,0,0,0,0,0,0,0,0,0,0,0,0,0,0,0,0,0,0,0,0,0,0,0,0,0,0,0,0,0,0,0,0,0,0,0,0,0,0,0,0,0,0,0,0,0,0,0,0,0,0,0,0,0,0,0,0,0,0,0,0,0,0,0,0,0,0,0,0,0,0,0,0,0],"id":3,"left_children":[1,3,5,7,9,11,13,15,17,19,21,23,25,27,29,31,33,35,37,39,41,43,45,47,49,51,53,-1,-1,55,-1,57,59,61,63,65,67,69,71,73,75,77,79,81,83,85,87,89,-1,91,93,95,97,99,101,103,105,-1,-1,-1,-1,-1,-1,-1,-1,-1,-1,-1,-1,-1,-1,-1,-1,-1,-1,-1,-1,-1,-1,-1,-1,-1,-1,-1,-1,-1,-1,-1,-1,-1,-1,-1,-1,-1,-1,-1,-1,-1,-1,-1,-1,-1,-1,-1,-1,-1,-1],"loss_changes":[1.6600307E4,3.4385203E3,2.7930195E3,7.377959E2,9.808878E2,1.3601152E3,3.1698242E2,1.5874902E2,3.9430176E2,5.832851E2,3.760304E2,1.0718936E3,7.488589E2,4.7472496E0,2.3655078E2,8.375806E1,1.7232849E2,4.0551227E2,3.7229102E2,5.3768787E2,5.367895E2,2.8877576E2,1.8891615E2,2.1572906E2,6.805E2,1.0102698E3,7.748789E2,0E0,0E0,3.3776416E2,0E0,5.182251E1,1.4149649E2,2.21305E2,1.1468274E2,1.12136475E2,2.2137227E2,1.3850146E2,2.2211108E2,2.3760352E2,1.7862396E2,8.5479456E2,4.878091E2,1.9072188E2,1.5028613E2,1.6943457E2,8.258569E1,1.1194627E2,0E0,9.028364E2,6.127239E2,4.0207935E2,2.6036218E2,5.138435E2,3.0544775E2,2.6563086E2,2.1115637E2,0E0,0E0,0E0,0E0,0E0,0E0,0E0,0E0,0E0,0E0,0E0,0E0,0E0,0E0,0E0,0E0,0E0,0E0,0E0,0E0,0E0,0E0,0E0,0E0,0E0,0E0,0E0,0E0,0E0,0E0,0E0,0E0,0E0,0E0,0E0,0E0,0E0,0E0,0E0,0E0,0E0,0E0,0E0,0E0,0E0,0E0,0E0,0E0,0E0,0E0],"parents":[2147483647,0,0,1,1,2,2,3,3,4,4,5,5,6,6,7,7,8,8,9,9,10,10,11,11,12,12,13,13,14,14,15,15,16,16,17,17,18,18,19,19,20,20,21,21,22,22,23,23,24,24,25,25,26,26,29,29,31,31,32,32,33,33,34,34,35,35,36,36,37,37,38,38,39,39,40,40,41,41,42,42,43,43,44,44,45,45,46,46,47,47,49,49,50,50,51,51,52,52,53,53,54,54,55,55,56,56],"right_children":[2,4,6,8,10,12,14,16,18,20,22,24,26,28,30,32,34,36,38,40,42,44,46,48,50,52,54,-1,-1,56,-1,58,60,62,64,66,68,70,72,74,76,78,80,82,84,86,88,90,-1,92,94,96,98,100,102,104,106,-1,-1,-1,-1,-1,-1,-1,-1,-1,-1,-1,-1,-1,-1,-1,-1,-1,-1,-1,-1,-1,-1,-1,-1,-1,-1,-1,-1,-1,-1,-1,-1,-1,-1,-1,-1,-1,-1,-1,-1,-1,-1,-1,-1,-1,-1,-1,-1,-1,-1],"split_conditions":[3.4E1,2.1E1,6.2E1,1.4E1,2.3664352E1,1.9262683E2,1.3477501E0,1.5E1,2.2376671E2,1.1901798E1,2.8036118E1,4.7587147E1,1E-1,6.6E1,8.7E1,1.3399999E1,8.000001E-1,6.9392525E1,1.1659777E1,8.408169E0,2.1567303E2,4E-1,2.9795301E1,5.3E1,3.9E1,5.6E1,4E1,-1.4341736E-1,5.5136836E-1,1.9862555E2,7.0340884E-1,2.5660376E2,1.3E1,1.2624833E1,1.6993584E1,-6.4808327E-1,1.6E1,2.9E1,9E0,9.192192E1,3E1,2.4227502E0,2.2608458E1,2.7553526E1,1.3722749E1,9.000001E-1,2.6649997E-1,1.0464797E1,1.7104317E0,5.006084E0,3.6E1,1.8683165E1,5.499834E0,3.9E1,3.3834607E2,1.4649834E1,2.4999998E0,-1.2564628E0,-1.6666248E0,-1.1564056E0,1.3777587E0,-4.7122663E-1,-1.3500762E0,-1.5279015E0,-1.2853771E-1,2.3981467E-1,-1.2132745E0,2.4613781E-1,-4.4695577E-1,-1.8363286E-2,2.3464007E0,7.476977E-1,-1.0067558E0,8.68547E-1,2.6614513E0,5.0631094E-1,-1.4991621E0,-8.649919E-1,8.5031897E-1,-2.9928562E-1,1.8552258E0,-1.4355046E-1,-2.0417547E0,-2.062489E0,4.3859997E-1,1.9914674E0,-1.5696594E-1,7.0634884E-1,-1.2017136E0,6.592418E-1,-1.2470747E0,1.2454194E0,3.4809718E0,-2.751532E0,1.7270912E0,2.0550227E0,-2.9121545E-1,-2.465108E0,1.6349276E0,-1.2361591E0,4.4213563E-1,1.9473184E0,-9.9976075E-1,5.6667037E0,1.2454804E0,3.4149945E0,7.920552E-2],"split_indices":[0,0,0,0,5,6,3,2,6,5,5,6,4,0,2,4,4,6,5,3,6,4,5,0,1,1,2,0,0,6,0,6,2,3,3,3,1,2,1,6,1,3,5,5,3,4,3,5,0,3,0,3,3,0,6,3,4,0,0,0,0,0,0,0,0,0,0,0,0,0,0,0,0,0,0,0,0,0,0,0,0,0,0,0,0,0,0,0,0,0,0,0,0,0,0,0,0,0,0,0,0,0,0,0,0,0,0],"split_type":[0,0,0,0,0,0,0,0,0,0,0,0,0,0,0,0,0,0,0,0,0,0,0,0,0,0,0,0,0,0,0,0,0,0,0,0,0,0,0,0,0,0,0,0,0,0,0,0,0,0,0,0,0,0,0,0,0,0,0,0,0,0,0,0,0,0,0,0,0,0,0,0,0,0,0,0,0,0,0,0,0,0,0,0,0,0,0,0,0,0,0,0,0,0,0,0,0,0,0,0,0,0,0,0,0,0,0],"sum_hessian":[1.68E3,1.297E3,3.83E2,8.03E2,4.94E2,3.43E2,4E1,3.48E2,4.55E2,4.15E2,7.9E1,1.68E2,1.75E2,2E0,3.8E1,1.67E2,1.81E2,2.14E2,2.41E2,5.4E1,3.61E2,5.8E1,2.1E1,1.6E1,1.52E2,8.3E1,9.2E1,1E0,1E0,3.6E1,2E0,1.6E2,7E0,1.17E2,6.4E1,5E1,1.64E2,8E0,2.33E2,3.1E1,2.3E1,1.76E2,1.85E2,2.9E1,2.9E1,1.2E1,9E0,1.3E1,3E0,8.6E1,6.6E1,7.6E1,7E0,6.5E1,2.7E1,2.1E1,1.5E1,8E1,8E1,5E0,2E0,7.8E1,3.9E1,5.8E1,6E0,5E0,4.5E1,8.3E1,8.1E1,5E0,3E0,6E0,2.27E2,1.2E1,1.9E1,1.9E1,4E0,3.1E1,1.45E2,1.76E2,9E0,2.4E1,5E0,2.7E1,2E0,6E0,6E0,2E0,7E0,3E0,1E1,2.4E1,6.2E1,2E0,6.4E1,6.9E1,7E0,6E0,1E0,2.8E1,3.7E1,2.4E1,3E0,1.9E1,2E0,1.3E1,2E0],"tree_param":{"num_deleted":"0","num_feature":"7","num_nodes":"107","size_leaf_vector":"1"}},{"base_weights":[4.4911765E-2,-1.0722003E0,4.519876E0,-1.8596735E0,8.0816215E-1,3.767086E0,9.844411E0,-9.0643877E-1,-2.5230994E0,3.7699244E0,3.912064E-1,4.20902E0,-9.841141E-1,8.7027445E0,4.8971586E0,-2.7803116E0,-9.613424E-2,-1.7849882E0,-3.5038972E0,5.9181347E0,1.0842023E0,-2.5348398E-1,2.3135061E0,4.7076473E0,1.9681986E-1,1.7291136E0,-3.0949178E0,1.0314713E1,3.3189604E0,-1.1704012E0,-3.5909016E0,-4.9989244E-1,1.6791202E0,-1.482134E0,-5.027839E0,-3.967834E0,-1.6708598E0,1.5535003E0,7.6741123E0,-2.1016355E0,1.7703434E0,2.8662775E0,-6.225511E-1,6.825533E0,8.8606393E-1,6.488031E0,3.6412303E0,3.174141E0,-3.645223E0,5.822344E0,-4.375454E0,-1.7644247E-2,1.1110188E1,5.2574167E0,-8.8697284E-1,-1.0603924E0,3.7487167E-1,-1.4938E0,-7.2145677E-1,-2.2823735E-1,6.59794E-1,-1.0785114E0,1.1315732E0,3.9986696E-2,-5.927785E-1,-7.3673344E-1,-1.7415817E0,-8.818354E-1,-1.496048E0,-9.956011E-1,3.5770208E-1,1.8629254E0,-5.428751E-1,4.255539E0,1.3006577E0,1.0029898E0,-8.944264E-1,1.8794292E0,-4.6108723E-1,1.12190485E-1,-7.8231287E-1,2.583856E0,-2.0308018E0,5.571488E-1,-1.2944479E0,2.2979867E0,-1.011831E-1,9.5777446E-1,3.7628052E0,-2.5174284E-1,1.7413005E0,-1.4938706E0,8.7217027E-1,5.340516E0,1.3450785E-1,-2.620717E0,2.579719E-1,8.1061137E-1,-8.185513E-1,4.377229E0,2.2755146E0,3.2540429E0,4.759452E-1],"categories":[],"categories_nodes":[],"categories_segments":[],"categories_sizes":[],"default_left":[0,0,0,0,0,0,0,0,0,0,0,0,0,0,0,0,0,0,0,0,0,0,0,0,0,0,0,0,0,0,0,0,0,0,0,0,0,0,0,0,0,0,0,0,0,0,0,0,0,0,0,0,0,0,0,0,0,0,0,0,0,0,0,0,0,0,0,0,0,0,0,0,0,0,0,0,0,0,0,0,0,0,0,0,0,0,0,0,0,0,0,0,0,0,0,0,0,0,0,0,0,0,0],"id":4,"left_children":[1,3,5,7,9,11,13,15,17,19,21,23,25,27,-1,29,31,33,35,37,39,41,43,45,47,49,-1,51,53,55,57,59,61,63,65,67,69,71,73,-1,75,77,79,81,83,85,87,89,91,93,95,97,99,101,-1,-1,-1,-1,-1,-1,-1,-1,-1,-1,-1,-1,-1,-1,-1,-1,-1,-1,-1,-1,-1,-1,-1,-1,-1,-1,-1,-1,-1,-1,-1,-1,-1,-1,-1,-1,-1,-1,-1,-1,-1,-1,-1,-1,-1,-1,-1,-1,-1],"loss_changes":[8.408227E3,1.994572E3,1.3096895E3,5.978613E2,4.9002487E2,6.256592E2,1.6122998E2,5.9343005E2,3.9842676E2,2.7628882E2,4.3433728E2,5.412334E2,6.761737E2,2.8686987E2,0E0,1.4978455E2,1.9723532E2,3.0780573E2,1.9661938E2,1.950116E2,1.4006686E2,3.0460297E2,5.6073E2,4.339453E2,3.6617932E2,5.502108E2,0E0,2.3033203E2,1.3719247E2,2.389941E2,1.16471436E2,1.594183E2,5.764832E2,2.3558087E2,3.973285E1,1.8444507E2,2.3985759E2,1.5217133E2,3.515144E2,0E0,1.7440271E2,4.2862997E2,4.6784192E2,5.6856946E2,3.514526E2,7.144724E2,5.7098157E2,1.9487349E2,1.3688217E2,8.2891907E2,2.1296016E2,2.9490551E1,2.0833545E2,1.46938E2,0E0,0E0,0E0,0E0,0E0,0E0,0E0,0E0,0E0,0E0,0E0,0E0,0E0,0E0,0E0,0E0,0E0,0E0,0E0,0E0,0E0,0E0,0E0,0E0,0E0,0E0,0E0,0E0,0E0,0E0,0E0,0E0,0E0,0E0,0E0,0E0,0E0,0E0,0E0,0E0,0E0,0E0,0E0,0E0,0E0,0E0,0E0,0E0,0E0],"parents":[2147483647,0,0,1,1,2,2,3,3,4,4,5,5,6,6,7,7,8,8,9,9,10,10,11,11,12,12,13,13,15,15,16,16,17,17,18,18,19,19,20,20,21,21,22,22,23,23,24,24,25,25,27,27,28,28,29,29,30,30,31,31,32,32,33,33,34,34,35,35,36,36,37,37,38,38,40,40,41,41,42,42,43,43,44,44,45,45,46,46,47,47,48,48,49,49,50,50,51,51,52,52,53,53],"right_children":[2,4,6,8,10,12,14,16,18,20,22,24,26,28,-1,30,32,34,36,38,40,42,44,46,48,50,-1,52,54,56,58,60,62,64,66,68,70,72,74,-1,76,78,80,82,84,86,88,90,92,94,96,98,100,102,-1,-1,-1,-1,-1,-1,-1,-1,-1,-1,-1,-1,-1,-1,-1,-1,-1,-1,-1,-1,-1,-1,-1,-1,-1,-1,-1,-1,-1,-1,-1,-1,-1,-1,-1,-1,-1,-1,-1,-1,-1,-1,-1,-1,-1,-1,-1,-1,-1],"split_conditions":[3.6E1,2.4E1,6.2E1,2.218818E2,1.1901798E1,2.433664E1,8.4E1,8.1320404E1,9.174834E0,8.408169E0,3.4E1,2.9792764E2,1.1479E1,1.8782204E1,4.8971586E0,4.104E0,2.1E1,3.1E0,1.7097748E1,1.9E1,9.887334E0,-1.2647499E0,1.5566342E2,3.5E1,1.658346E1,1.0000001E0,-3.0949178E0,3E1,2.0000002E0,1.6E1,4.3548153E1,2.6E1,4.6060834E0,1.5629971E1,1.6E1,2.638371E2,1.7163355E1,1.0636766E1,1.7E1,-2.1016355E0,3E1,2.4E1,2.3889316E2,5.6E1,4.9E1,1.7539415E1,2.85876E2,3.5E1,3.4857693E2,2.4E1,2.3059314E2,6.6E1,5.6E1,3.5E1,-8.8697284E-1,-1.0603924E0,3.7487167E-1,-1.4938E0,-7.2145677E-1,-2.2823735E-1,6.59794E-1,-1.0785114E0,1.1315732E0,3.9986696E-2,-5.927785E-1,-7.3673344E-1,-1.7415817E0,-8.818354E-1,-1.496048E0,-9.956011E-1,3.5770208E-1,1.8629254E0,-5.428751E-1,4.255539E0,1.3006577E0,1.0029898E0,-8.944264E-1,1.8794292E0,-4.6108723E-1,1.12190485E-1,-7.8231287E-1,2.583856E0,-2.0308018E0,5.571488E-1,-1.2944479E0,2.2979867E0,-1.011831E-1,9.5777446E-1,3.7628052E0,-2.5174284E-1,1.7413005E0,-1.4938706E0,8.7217027E-1,5.340516E0,1.3450785E-1,-2.620717E0,2.579719E-1,8.1061137E-1,-8.185513E-1,4.377229E0,2.2755146E0,3.2540429E0,4.759452E-1],"split_indices":[0,0,0,6,5,5,0,6,3,3,2,6,3,5,0,3,0,4,3,1,3,3,6,1,5,4,0,1,4,0,6,1,3,5,1,6,5,5,2,0,1,1,6,2,1,3,6,1,6,1,6,0,1,2,0,0,0,0,0,0,0,0,0,0,0,0,0,0,0,0,0,0,0,0,0,0,0,0,0,0,0,0,0,0,0,0,0,0,0,0,0,0,0,0,0,0,0,0,0,0,0,0,0],"split_type":[0,0,0,0,0,0,0,0,0,0,0,0,0,0,0,0,0,0,0,0,0,0,0,0,0,0,0,0,0,0,0,0,0,0,0,0,0,0,0,0,0,0,0,0,0,0,0,0,0,0,0,0,0,0,0,0,0,0,0,0,0,0,0,0,0,0,0,0,0,0,0,0,0,0,0,0,0,0,0,0,0,0,0,0,0,0,0,0,0,0,0,0,0,0,0,0,0,0,0,0,0,0,0],"sum_hessian":[1.68E3,1.345E3,3.35E2,9.48E2,3.97E2,2.95E2,4E1,3.9E2,5.58E2,4.8E1,3.49E2,2.7E2,2.5E1,3.6E1,4E0,1.17E2,2.73E2,3.2E2,2.38E2,2.6E1,2.2E1,2.62E2,8.7E1,2.4E2,3E1,2E1,5E0,2.7E1,9E0,4E1,7.7E1,2.23E2,5E1,2.94E2,2.6E1,1.89E2,4.9E1,8E0,1.8E1,1E0,2.1E1,2.7E1,2.35E2,2E1,6.7E1,8.8E1,1.52E2,1.7E1,1.3E1,1.2E1,8E0,2E0,2.5E1,7E0,2E0,2E1,2E1,3.4E1,4.3E1,2.04E2,1.9E1,1.4E1,3.6E1,6.9E1,2.25E2,7E0,1.9E1,9.6E1,9.3E1,3.1E1,1.8E1,3E0,5E0,5E0,1.3E1,1.6E1,5E0,1.5E1,1.2E1,1.57E2,7.8E1,1.8E1,2E0,5.7E1,1E1,7.5E1,1.3E1,1.46E2,6E0,7E0,1E1,1.1E1,2E0,3E0,9E0,4E0,4E0,1E0,1E0,1.1E1,1.4E1,2E0,5E0],"tree_param":{"num_deleted":"0","num_feature":"7","num_nodes":"103","size_leaf_vector":"1"}},{"base_weights":[4.284322E-2,-6.5126973E-1,3.704906E0,-1.2659749E0,8.2145685E-1,5.352342E0,1.9411573E0,-2.124165E0,-8.0324507E-1,1.7120978E0,-5.9104633E-1,-5.746162E-2,6.0125413E0,-4.482891E0,2.3399575E0,-2.418507E0,-1.2999548E0,-2.3410423E-1,-1.5313233E0,1.0017803E0,4.0668564E0,-2.0482671E0,1.3055079E0,-3.3484848E0,1.7428657E0,4.474554E0,8.243899E0,-5.779513E0,6.890196E-1,1.1261293E1,1.8704787E0,-5.980411E-1,-2.5702498E0,-1.990931E-1,-2.8473473E0,1.7536935E0,-6.0646075E-1,-1.0906991E0,-3.0666864E0,6.1436963E-1,4.6192613E0,5.1468234E0,-1.1136204E0,-3.0695423E-1,-3.8601503E0,2.7218828E0,-2.7141435E0,4.938738E-1,-4.67668E0,2.530273E0,-1.2003117E0,6.650792E0,1.9322183E0,1.0519628E1,3.3413727E0,-1.9973141E0,-7.168024E-1,4.272797E0,-5.468279E-1,-7.7838725E-1,2.895955E0,-7.0600086E-1,6.011502E-1,-9.85545E-1,-6.50477E-1,-2.1293662E-1,1.2525007E0,-1.1826782E0,-3.081054E-1,1.9244816E0,1.9468687E-1,-3.488912E-2,-5.628343E-1,-4.100616E-1,7.703149E-1,-1.5137969E0,-4.8951724E-1,5.029108E-1,-3.736179E-1,9.406716E-1,2.193398E0,1.7466251E0,-5.879652E-1,-7.476113E-1,1.3512002E-1,1.6153742E0,-5.839278E-1,-3.724867E-1,-1.5384082E0,3.7849252E0,4.9700633E-1,-2.1795108E0,3.7681615E-1,-6.4555097E-1,-1.6927891E0,9.566654E-1,-4.1079286E-1,-5.476819E-1,7.541657E-3,-6.737323E-1,2.3957686E0,-8.671001E-1,1.4351026E0,3.5053544E0,4.9780864E-1,1.5696001E-1,2.526247E0,-1.9925768E0,6.744446E-2,1.6478117E0,1.2239011E-1],"categories":[],"categories_nodes":[],"categories_segments":[],"categories_sizes":[],"default_left":[0,0,0,0,0,0,0,0,0,0,0,0,0,0,0,0,0,0,0,0,0,0,0,0,0,0,0,0,0,0,0,0,0,0,0,0,0,0,0,0,0,0,0,0,0,0,0,0,0,0,0,0,0,0,0,0,0,0,0,0,0,0,0,0,0,0,0,0,0,0,0,0,0,0,0,0,0,0,0,0,0,0,0,0,0,0,0,0,0,0,0,0,0,0,0,0,0,0,0,0,0,0,0,0,0,0,0,0,0,0,0],"id":5,"left_children":[1,3,5,7,9,11,13,15,17,19,21,23,25,27,29,31,33,35,37,39,41,43,45,47,49,51,53,55,-1,57,59,61,63,65,67,69,71,73,75,77,79,81,83,85,87,89,91,-1,93,95,97,99,101,103,105,-1,-1,-1,-1,107,109,-1,-1,-1,-1,-1,-1,-1,-1,-1,-1,-1,-1,-1,-1,-1,-1,-1,-1,-1,-1,-1,-1,-1,-1,-1,-1,-1,-1,-1,-1,-1,-1,-1,-1,-1,-1,-1,-1,-1,-1,-1,-1,-1,-1,-1,-1,-1,-1,-1,-1],"loss_changes":[4.275322E3,1.2811235E3,7.683279E2,3.9460974E2,5.2561176E2,4.93219E2,3.4610022E2,8.152344E1,2.6898788E2,4.2411816E2,4.5039307E2,1.0063466E2,3.8522363E2,8.359886E1,4.982948E2,6.918091E1,1.5955882E2,2.7196558E2,1.8946283E2,2.7464935E2,3.3582147E2,2.8908017E2,4.1161426E2,4.7502823E1,2.8529385E1,4.0210376E2,5.1153394E2,4.9332123E0,0E0,2.600108E2,3.254998E2,1.00623924E2,6.069983E1,1.2805792E2,7.368222E1,2.945051E2,1.9208426E2,2.2881882E2,1.7070056E2,3.5759982E2,5.2964355E1,2.4655554E2,2.4837013E1,4.58374E2,1.4303162E2,5.3769775E2,3.5241608E2,0E0,5.2352905E-2,2.7481361E1,2.344697E0,4.9304785E2,5.0887323E2,3.2121094E2,2.3894527E2,0E0,0E0,0E0,0E0,2.0149176E2,5.5337787E2,0E0,0E0,0E0,0E0,0E0,0E0,0E0,0E0,0E0,0E0,0E0,0E0,0E0,0E0,0E0,0E0,0E0,0E0,0E0,0E0,0E0,0E0,0E0,0E0,0E0,0E0,0E0,0E0,0E0,0E0,0E0,0E0,0E0,0E0,0E0,0E0,0E0,0E0,0E0,0E0,0E0,0E0,0E0,0E0,0E0,0E0,0E0,0E0,0E0,0E0],"parents":[2147483647,0,0,1,1,2,2,3,3,4,4,5,5,6,6,7,7,8,8,9,9,10,10,11,11,12,12,13,13,14,14,15,15,16,16,17,17,18,18,19,19,20,20,21,21,22,22,23,23,24,24,25,25,26,26,27,27,29,29,30,30,31,31,32,32,33,33,34,34,35,35,36,36,37,37,38,38,39,39,40,40,41,41,42,42,43,43,44,44,45,45,46,46,48,48,49,49,50,50,51,51,52,52,53,53,54,54,59,59,60,60],"right_children":[2,4,6,8,10,12,14,16,18,20,22,24,26,28,30,32,34,36,38,40,42,44,46,48,50,52,54,56,-1,58,60,62,64,66,68,70,72,74,76,78,80,82,84,86,88,90,92,-1,94,96,98,100,102,104,106,-1,-1,-1,-1,108,110,-1,-1,-1,-1,-1,-1,-1,-1,-1,-1,-1,-1,-1,-1,-1,-1,-1,-1,-1,-1,-1,-1,-1,-1,-1,-1,-1,-1,-1,-1,-1,-1,-1,-1,-1,-1,-1,-1,-1,-1,-1,-1,-1,-1,-1,-1,-1,-1,-1,-1],"split_conditions":[3.9E1,2.5E1,1.9862555E2,1.4E1,8E-1,4.972019E1,1.5E1,1.7E1,2E1,3.6E1,3.7000003E0,3.1915004E0,5.3E1,5.1E1,2.5E1,1.14862E1,4E-1,9.248333E-1,2.5000002E0,2.0866499E1,4.9E1,2.7E1,2.3999753E2,2.9E1,2.0633371E1,3.9E1,9.000001E-1,2.2E1,6.890196E-1,3.1E1,2.7E1,1.1E1,1E-1,2.5812277E1,2.7E1,1.1E1,2.5132146E2,1.5E0,5.2852497E0,1.4039416E1,1E-1,3.8E1,1E-1,1.7633812E2,1.2E0,2.6649997E-1,2.6682022E2,4.938738E-1,2.4227502E0,1.8887335E1,4.8E1,1.1665001E0,4.2E1,7.5E1,4.8E0,-1.9973141E0,-7.168024E-1,4.272797E0,-5.468279E-1,-6.4808327E-1,4.6E1,-7.0600086E-1,6.011502E-1,-9.85545E-1,-6.50477E-1,-2.1293662E-1,1.2525007E0,-1.1826782E0,-3.081054E-1,1.9244816E0,1.9468687E-1,-3.488912E-2,-5.628343E-1,-4.100616E-1,7.703149E-1,-1.5137969E0,-4.8951724E-1,5.029108E-1,-3.736179E-1,9.406716E-1,2.193398E0,1.7466251E0,-5.879652E-1,-7.476113E-1,1.3512002E-1,1.6153742E0,-5.839278E-1,-3.724867E-1,-1.5384082E0,3.7849252E0,4.9700633E-1,-2.1795108E0,3.7681615E-1,-6.4555097E-1,-1.6927891E0,9.566654E-1,-4.1079286E-1,-5.476819E-1,7.541657E-3,-6.737323E-1,2.3957686E0,-8.671001E-1,1.4351026E0,3.5053544E0,4.9780864E-1,1.5696001E-1,2.526247E0,-1.9925768E0,6.744446E-2,1.6478117E0,1.2239011E-1],"split_indices":[0,0,6,0,4,6,2,1,1,2,4,3,0,0,1,5,4,3,4,3,1,1,6,1,5,1,4,1,0,2,2,0,4,5,2,1,6,4,3,3,4,0,4,6,4,3,6,0,3,3,0,3,2,2,4,0,0,0,0,3,1,0,0,0,0,0,0,0,0,0,0,0,0,0,0,0,0,0,0,0,0,0,0,0,0,0,0,0,0,0,0,0,0,0,0,0,0,0,0,0,0,0,0,0,0,0,0,0,0,0,0],"split_type":[0,0,0,0,0,0,0,0,0,0,0,0,0,0,0,0,0,0,0,0,0,0,0,0,0,0,0,0,0,0,0,0,0,0,0,0,0,0,0,0,0,0,0,0,0,0,0,0,0,0,0,0,0,0,0,0,0,0,0,0,0,0,0,0,0,0,0,0,0,0,0,0,0,0,0,0,0,0,0,0,0,0,0,0,0,0,0,0,0,0,0,0,0,0,0,0,0,0,0,0,0,0,0,0,0,0,0,0,0,0,0],"sum_hessian":[1.68E3,1.413E3,2.67E2,9.97E2,4.16E2,1.37E2,1.3E2,3.48E2,6.49E2,2.55E2,1.61E2,1.5E1,1.22E2,7E0,1.23E2,2.55E2,9.3E1,3.65E2,2.84E2,1.97E2,5.8E1,9.1E1,7E1,5E0,1E1,7.4E1,4.8E1,6E0,1E0,5E0,1.18E2,2E1,2.35E2,5.5E1,3.8E1,5.7E1,3.08E2,2.22E2,6.2E1,1.79E2,1.8E1,4.8E1,1E1,4.7E1,4.4E1,5.2E1,1.8E1,1E0,4E0,8E0,2E0,3.9E1,3.5E1,3.2E1,1.6E1,4E0,2E0,4E0,1E0,3.3E1,8.5E1,1.2E1,8E0,8.2E1,1.53E2,5E1,5E0,2.3E1,1.5E1,1E1,4.7E1,2.23E2,8.5E1,2.07E2,1.5E1,2.5E1,3.7E1,1.14E2,6.5E1,1.3E1,5E0,4.4E1,4E0,5E0,5E0,1E1,3.7E1,1.5E1,2.9E1,4E0,4.8E1,8E0,1E1,2E0,2E0,7E0,1E0,1E0,1E0,5E0,3.4E1,1.3E1,2.2E1,2.8E1,4E0,1.1E1,5E0,4E0,2.9E1,4.1E1,4.4E1],"tree_param":{"num_deleted":"0","num_feature":"7","num_nodes":"111","size_leaf_vector":"1"}},{"base_weights":[3.6997434E-2,-3.270944E-1,3.9551816E0,-8.8850087E-1,7.072427E-1,3.2134626E0,6.5312805E0,-1.3635349E0,-4.0109053E-1,5.325553E0,5.7470125E-1,5.954364E0,2.151036E0,7.832188E0,1.8121481E0,-1.272199E0,-4.475943E0,2.6809957E0,-6.13241E-1,7.3639607E0,1.9439496E0,1.2024032E0,-4.6909937E-1,7.528476E0,-1.1210146E0,4.8637578E-1,3.844435E0,1.0121389E1,2.8922532E0,-1.2500671E0,5.18688E0,-2.3485844E0,-1.015426E0,-5.4872227E0,-1.5581944E0,-6.4391434E-1,7.5900116E0,8.336298E-2,-1.1479768E0,2.804623E0,2.5457988E0,-9.132223E-1,4.315134E0,-8.8183427E-1,1.8510236E0,-7.703118E-1,5.3008456E0,4.299764E0,1.1206052E1,4.337105E0,-1.7314113E0,7.0011125E0,7.9998136E-1,7.922287E-1,1.1397539E1,3.9078128E0,6.4585066E-1,5.856669E-1,-2.5386953E0,6.960678E-1,2.0680265E0,-1.765858E0,-6.377866E-1,-6.512836E-2,-4.381563E-1,-1.773087E0,-2.5194284E-1,-7.402301E-1,3.118143E-1,1.6208786E0,-6.086471E-1,2.694703E0,-1.367696E0,-1.0113339E-1,8.4634346E-1,-4.449354E-1,5.47177E-1,1.0196978E0,-2.0673752E-3,3.5533562E-1,-6.0217935E-1,2.7534944E-1,1.5424874E0,3.1240153E-1,-8.6430603E-1,1.2558844E0,2.0380534E-1,2.3852922E-1,-6.385968E-1,2.1566391E-2,2.2594674E0,3.0264053E0,2.2549434E-1,4.134487E0,-3.3436033E-1,2.375447E0,-7.011481E-2,-2.1140375E0,2.2412407E-1,2.649475E0,3.7742501E-1,-1.1542633E0,8.349826E-1,1.0623883E0,-7.0588535E-1,-3.663992E-1,3.7386513E0,4.390999E-1,1.4291909E0,3.7891275E-1,5.7317736E-3,-8.900551E-1,-1.8813458E-1],"categories":[],"categories_nodes":[],"categories_segments":[],"categories_sizes":[],"default_left":[0,0,0,0,0,0,0,0,0,0,0,0,0,0,0,0,0,0,0,0,0,0,0,0,0,0,0,0,0,0,0,0,0,0,0,0,0,0,0,0,0,0,0,0,0,0,0,0,0,0,0,0,0,0,0,0,0,0,0,0,0,0,0,0,0,0,0,0,0,0,0,0,0,0,0,0,0,0,0,0,0,0,0,0,0,0,0,0,0,0,0,0,0,0,0,0,0,0,0,0,0,0,0,0,0,0,0,0,0,0,0,0,0],"id":6,"left_children":[1,3,5,7,9,11,13,15,17,19,21,23,25,27,29,31,33,35,37,39,41,43,45,47,-1,49,51,53,55,57,59,61,63,65,67,69,71,73,75,-1,77,79,81,83,85,87,89,91,93,95,97,99,101,103,105,107,109,-1,111,-1,-1,-1,-1,-1,-1,-1,-1,-1,-1,-1,-1,-1,-1,-1,-1,-1,-1,-1,-1,-1,-1,-1,-1,-1,-1,-1,-1,-1,-1,-1,-1,-1,-1,-1,-1,-1,-1,-1,-1,-1,-1,-1,-1,-1,-1,-1,-1,-1,-1,-1,-1,-1,-1],"loss_changes":[2.3993728E3,8.9430035E2,2.5224805E2,2.3052649E2,3.2870718E2,3.162484E2,1.7612073E2,1.3786432E2,3.2465393E2,8.9081116E1,3.4650735E2,5.010321E2,2.3210168E2,2.421305E2,8.9157196E1,1.3359741E2,3.2759094E1,5.2719244E2,1.7256276E2,6.2266968E1,5.136485E1,4.477524E2,3.4994107E2,2.7241016E2,0E0,3.747335E2,3.8842395E2,1.8145703E2,1.8008339E1,2.5588905E1,3.5739594E0,6.151831E1,1.4146097E2,1.4698181E1,1.4373688E1,1.7844815E2,2.6085114E2,2.3348674E2,2.636587E2,0E0,8.73518E0,1.1557286E1,6.512207E0,3.0673773E2,6.866676E2,4.0570172E2,1.1610156E2,3.210157E2,3.9615063E2,2.6374408E2,3.7414E2,1.9913794E2,2.1349174E2,3.4271408E1,2.0330249E2,5.5825653E0,1.5231552E0,0E0,1.4132519E0,0E0,0E0,0E0,0E0,0E0,0E0,0E0,0E0,0E0,0E0,0E0,0E0,0E0,0E0,0E0,0E0,0E0,0E0,0E0,0E0,0E0,0E0,0E0,0E0,0E0,0E0,0E0,0E0,0E0,0E0,0E0,0E0,0E0,0E0,0E0,0E0,0E0,0E0,0E0,0E0,0E0,0E0,0E0,0E0,0E0,0E0,0E0,0E0,0E0,0E0,0E0,0E0,0E0,0E0],"parents":[2147483647,0,0,1,1,2,2,3,3,4,4,5,5,6,6,7,7,8,8,9,9,10,10,11,11,12,12,13,13,14,14,15,15,16,16,17,17,18,18,19,19,20,20,21,21,22,22,23,23,25,25,26,26,27,27,28,28,29,29,30,30,31,31,32,32,33,33,34,34,35,35,36,36,37,37,38,38,40,40,41,41,42,42,43,43,44,44,45,45,46,46,47,47,48,48,49,49,50,50,51,51,52,52,53,53,54,54,55,55,56,56,58,58],"right_children":[2,4,6,8,10,12,14,16,18,20,22,24,26,28,30,32,34,36,38,40,42,44,46,48,-1,50,52,54,56,58,60,62,64,66,68,70,72,74,76,-1,78,80,82,84,86,88,90,92,94,96,98,100,102,104,106,108,110,-1,112,-1,-1,-1,-1,-1,-1,-1,-1,-1,-1,-1,-1,-1,-1,-1,-1,-1,-1,-1,-1,-1,-1,-1,-1,-1,-1,-1,-1,-1,-1,-1,-1,-1,-1,-1,-1,-1,-1,-1,-1,-1,-1,-1,-1,-1,-1,-1,-1,-1,-1,-1,-1,-1,-1],"split_conditions":[4.8E1,2.5E1,6.5E1,1.6E1,9.107359E0,3.9E1,2.1000001E0,3.0978832E1,1.1E1,3E1,8E-1,8.3E0,4.2E1,6E1,3.1E1,1.1E1,7.508167E0,6E-1,1.6375053E1,1.7335249E1,1E-1,1.7373333E0,2.1033167E1,6E-1,-1.1210146E0,1.4154915E1,5.2E1,3E1,1.9083395E1,6.6E1,7.4E1,3.8968758E1,2.2117912E2,4.0430737E1,1.2E1,1.1901798E1,4.8E0,1.8E0,1.6626917E1,2.804623E0,2.0324835E1,3.1E1,3.4E1,-1.2647499E0,6.93525E0,2.7E1,1.2E0,1.3339445E1,1.7458168E1,3.4E1,1.6520823E1,5.8E1,1.3004921E1,6.6E1,-4.696E0,6.9392525E1,7E1,5.856669E-1,7.6E1,6.960678E-1,2.0680265E0,-1.765858E0,-6.377866E-1,-6.512836E-2,-4.381563E-1,-1.773087E0,-2.5194284E-1,-7.402301E-1,3.118143E-1,1.6208786E0,-6.086471E-1,2.694703E0,-1.367696E0,-1.0113339E-1,8.4634346E-1,-4.449354E-1,5.47177E-1,1.0196978E0,-2.0673752E-3,3.5533562E-1,-6.0217935E-1,2.7534944E-1,1.5424874E0,3.1240153E-1,-8.6430603E-1,1.2558844E0,2.0380534E-1,2.3852922E-1,-6.385968E-1,2.1566391E-2,2.2594674E0,3.0264053E0,2.2549434E-1,4.134487E0,-3.3436033E-1,2.375447E0,-7.011481E-2,-2.1140375E0,2.2412407E-1,2.649475E0,3.7742501E-1,-1.1542633E0,8.349826E-1,1.0623883E0,-7.0588535E-1,-3.663992E-1,3.7386513E0,4.390999E-1,1.4291909E0,3.7891275E-1,5.7317736E-3,-8.900551E-1,-1.8813458E-1],"split_indices":[0,0,0,0,5,1,4,5,1,1,4,4,2,2,2,2,3,4,5,3,4,3,3,4,0,5,2,1,5,0,0,6,6,5,2,5,4,4,3,0,3,1,0,3,3,1,4,5,3,2,5,0,5,0,3,6,0,0,0,0,0,0,0,0,0,0,0,0,0,0,0,0,0,0,0,0,0,0,0,0,0,0,0,0,0,0,0,0,0,0,0,0,0,0,0,0,0,0,0,0,0,0,0,0,0,0,0,0,0,0,0,0,0],"split_type":[0,0,0,0,0,0,0,0,0,0,0,0,0,0,0,0,0,0,0,0,0,0,0,0,0,0,0,0,0,0,0,0,0,0,0,0,0,0,0,0,0,0,0,0,0,0,0,0,0,0,0,0,0,0,0,0,0,0,0,0,0,0,0,0,0,0,0,0,0,0,0,0,0,0,0,0,0,0,0,0,0,0,0,0,0,0,0,0,0,0,0,0,0,0,0,0,0,0,0,0,0,0,0,0,0,0,0,0,0,0,0,0,0],"sum_hessian":[1.68E3,1.538E3,1.42E2,9.97E2,5.41E2,1.12E2,3E1,5.04E2,4.93E2,1.4E1,5.27E2,3E1,8.2E1,2.3E1,7E0,4.91E2,1.3E1,3.1E1,4.62E2,8E0,6E0,3.29E2,1.98E2,2.6E1,4E0,4.2E1,4E1,1.5E1,8E0,4E0,3E0,9.3E1,3.98E2,9E0,4E0,1.9E1,1.2E1,2.01E2,2.61E2,5E0,3E0,3E0,3E0,7.8E1,2.51E2,1.89E2,9E0,1.5E1,1.1E1,1.5E1,2.7E1,1.9E1,2.1E1,2E0,1.3E1,5E0,3E0,1E0,3E0,2E0,1E0,4E0,8.9E1,1.43E2,2.55E2,8E0,1E0,3E0,1E0,3E0,1.6E1,1.1E1,1E0,1.75E2,2.6E1,2.35E2,2.6E1,2E0,1E0,1E0,2E0,1E0,2E0,4E1,3.8E1,8.3E1,1.68E2,8.8E1,1.01E2,3E0,6E0,5E0,1E1,9E0,2E0,8E0,7E0,8E0,1.9E1,1.4E1,5E0,6E0,1.5E1,1E0,1E0,1E0,1.2E1,2E0,3E0,1E0,2E0,2E0,1E0],"tree_param":{"num_deleted":"0","num_feature":"7","num_nodes":"113","size_leaf_vector":"1"}},{"base_weights":[3.9768178E-2,-4.3673646E-1,1.6503496E0,-2.803567E-1,-1.8395917E0,5.070396E-1,2.625513E0,5.2254915E-1,-5.822973E-1,-3.4599168E0,-6.146973E-2,2.1802695E0,-7.324994E-1,2.272876E0,7.324516E0,3.0428576E-1,6.6261034E0,-2.562608E-1,-1.6834503E0,4.2100587E0,-3.756129E0,2.2102664E0,-1.5161346E0,3.7614079E0,-1.6267627E0,-4.0306773E0,2.1306345E-1,4.299211E0,1.242225E0,9.493796E0,1.5210526E0,9.5634156E-1,-1.2042291E0,2.815187E0,1.259141E1,-2.335923E0,-9.2195176E-2,-1.8607239E0,2.6707492E0,-6.3451484E-2,1.957978E0,-2.880924E0,-6.311087E0,6.364514E-1,7.087938E0,4.6799004E-1,-2.775712E0,4.8940945E0,-1.7118227E0,3.259917E0,-3.1652803E0,-5.265538E0,1.4679302E0,-1.1290565E0,3.0955884E0,4.8091617E0,-1.4039478E0,2.8797996E0,1.0366505E0,3.127986E0,1.1525005E0,7.5594103E-1,1.5284221E-2,-3.9578563E-1,4.5300928E-1,1.0122378E0,-5.368319E-1,1.2517544E0,-2.513592E-1,4.70929E0,4.9091122E-1,8.7948745E-1,-9.0498173E-1,-5.0207555E-1,3.476971E-2,7.6591295E-1,-5.839688E-1,1.7371435E0,-1.0775517E-1,-1.0145556E0,7.028861E-2,2.50363E-1,-2.2174506E0,-5.864738E-1,4.891701E-1,2.3990397E0,3.815452E-1,-1.5751174E-1,2.3045144E0,-1.1784725E0,6.113005E-3,2.8823054E-1,1.8885844E0,-8.8869286E-1,1.4313836E0,1.4080639E-1,1.1172476E0,-1.4808445E0,7.278619E-1,-1.8002092E0,1.1950974E0,-1.2585716E0,1.9925368E0,1.9212061E0,-5.9794873E-1,2.1885324E0,-1.4111978E-1,2.0598223E0,8.380526E-1,6.8143374E-1,8.763656E-2,2.696972E-2,-2.009182E-2],"categories":[],"categories_nodes":[],"categories_segments":[],"categories_sizes":[],"default_left":[0,0,0,0,0,0,0,0,0,0,0,0,0,0,0,0,0,0,0,0,0,0,0,0,0,0,0,0,0,0,0,0,0,0,0,0,0,0,0,0,0,0,0,0,0,0,0,0,0,0,0,0,0,0,0,0,0,0,0,0,0,0,0,0,0,0,0,0,0,0,0,0,0,0,0,0,0,0,0,0,0,0,0,0,0,0,0,0,0,0,0,0,0,0,0,0,0,0,0,0,0,0,0,0,0,0,0,0,0,0,0,0,0],"id":7,"left_children":[1,3,5,7,9,11,13,15,17,19,21,23,25,27,29,31,33,35,37,39,41,43,45,47,49,51,53,55,57,59,61,63,65,67,69,71,73,75,77,-1,-1,79,81,83,85,87,89,91,93,95,97,99,101,103,105,107,-1,-1,109,-1,-1,-1,111,-1,-1,-1,-1,-1,-1,-1,-1,-1,-1,-1,-1,-1,-1,-1,-1,-1,-1,-1,-1,-1,-1,-1,-1,-1,-1,-1,-1,-1,-1,-1,-1,-1,-1,-1,-1,-1,-1,-1,-1,-1,-1,-1,-1,-1,-1,-1,-1,-1,-1],"loss_changes":[1.2908033E3,2.842371E2,4.2679578E2,2.837048E2,3.74335E2,3.7077505E2,3.2635986E2,4.242821E2,3.0473227E2,1.7030542E2,2.1154176E2,4.6359674E2,3.2207816E2,3.998175E2,1.6181012E2,3.060788E2,2.1461896E2,2.2395377E2,1.5471509E2,3.2108524E1,1.2940167E2,1.8740268E2,9.876621E1,3.4314838E2,1.8323813E2,1.6389984E2,3.1685934E2,3.201322E2,2.1338998E2,1.2668762E1,7.4809227E0,2.7541003E2,2.5789215E2,4.316309E1,1.1042804E2,1.8094894E2,2.009316E2,7.581885E1,7.77004E1,0E0,0E0,8.037787E1,1.2969244E2,5.4709923E1,2.1545807E1,1.18648224E2,7.742183E1,2.4196118E2,9.520431E1,6.025028E0,1.9020824E2,1.5309766E2,1.7436607E2,3.772893E2,3.9279288E2,2.3787292E2,0E0,0E0,1.1701204E2,0E0,0E0,0E0,2.4433555E-2,0E0,0E0,0E0,0E0,0E0,0E0,0E0,0E0,0E0,0E0,0E0,0E0,0E0,0E0,0E0,0E0,0E0,0E0,0E0,0E0,0E0,0E0,0E0,0E0,0E0,0E0,0E0,0E0,0E0,0E0,0E0,0E0,0E0,0E0,0E0,0E0,0E0,0E0,0E0,0E0,0E0,0E0,0E0,0E0,0E0,0E0,0E0,0E0,0E0,0E0],"parents":[2147483647,0,0,1,1,2,2,3,3,4,4,5,5,6,6,7,7,8,8,9,9,10,10,11,11,12,12,13,13,14,14,15,15,16,16,17,17,18,18,19,19,20,20,21,21,22,22,23,23,24,24,25,25,26,26,27,27,28,28,29,29,30,30,31,31,32,32,33,33,34,34,35,35,36,36,37,37,38,38,41,41,42,42,43,43,44,44,45,45,46,46,47,47,48,48,49,49,50,50,51,51,52,52,53,53,54,54,55,55,58,58,62,62],"right_children":[2,4,6,8,10,12,14,16,18,20,22,24,26,28,30,32,34,36,38,40,42,44,46,48,50,52,54,56,58,60,62,64,66,68,70,72,74,76,78,-1,-1,80,82,84,86,88,90,92,94,96,98,100,102,104,106,108,-1,-1,110,-1,-1,-1,112,-1,-1,-1,-1,-1,-1,-1,-1,-1,-1,-1,-1,-1,-1,-1,-1,-1,-1,-1,-1,-1,-1,-1,-1,-1,-1,-1,-1,-1,-1,-1,-1,-1,-1,-1,-1,-1,-1,-1,-1,-1,-1,-1,-1,-1,-1,-1,-1,-1,-1],"split_conditions":[3.4E1,2.5417631E1,3.2E1,2.8644168E0,2.8036118E1,1E-1,7.4E1,2.793583E0,2.7102664E2,-3.2585E0,2.9795301E1,3.8E1,6E-1,4E1,6.8E1,6E-1,2.3000002E0,4.3548153E1,2.9E1,1.6E1,2.7E1,2.9478264E1,8.000001E-1,1.8514643E1,1.35515E1,2.6778653E2,4.5E1,1.95665E1,3.3E1,1.8864423E2,1.8782204E1,-3.9668334E0,1.1E1,9.000001E-1,2.5E1,4.3456674E0,5.0790005E0,9.9571085E0,2.924383E2,-6.3451484E-2,1.957978E0,1.4416499E1,1E1,3.3290002E0,9.000001E-1,3.2E1,3.575436E1,3.4206667E0,4.3E1,5E1,2.826746E2,2.8112288E1,1.8720001E1,8E-1,3.5E1,1.7185873E2,-1.4039478E0,2.8797996E0,5.3144164E0,3.127986E0,1.1525005E0,7.5594103E-1,8E1,-3.9578563E-1,4.5300928E-1,1.0122378E0,-5.368319E-1,1.2517544E0,-2.513592E-1,4.70929E0,4.9091122E-1,8.7948745E-1,-9.0498173E-1,-5.0207555E-1,3.476971E-2,7.6591295E-1,-5.839688E-1,1.7371435E0,-1.0775517E-1,-1.0145556E0,7.028861E-2,2.50363E-1,-2.2174506E0,-5.864738E-1,4.891701E-1,2.3990397E0,3.815452E-1,-1.5751174E-1,2.3045144E0,-1.1784725E0,6.113005E-3,2.8823054E-1,1.8885844E0,-8.8869286E-1,1.4313836E0,1.4080639E-1,1.1172476E0,-1.4808445E0,7.278619E-1,-1.8002092E0,1.1950974E0,-1.2585716E0,1.9925368E0,1.9212061E0,-5.9794873E-1,2.1885324E0,-1.4111978E-1,2.0598223E0,8.380526E-1,6.8143374E-1,8.763656E-2,2.696972E-2,-2.009182E-2],"split_indices":[0,5,2,3,5,4,0,3,6,3,5,1,4,1,2,4,4,6,0,0,0,5,4,5,5,6,0,3,2,6,5,3,1,4,2,3,3,5,6,0,0,3,2,3,4,2,5,3,0,0,6,5,5,4,1,6,0,0,3,0,0,0,0,0,0,0,0,0,0,0,0,0,0,0,0,0,0,0,0,0,0,0,0,0,0,0,0,0,0,0,0,0,0,0,0,0,0,0,0,0,0,0,0,0,0,0,0,0,0,0,0,0,0],"split_type":[0,0,0,0,0,0,0,0,0,0,0,0,0,0,0,0,0,0,0,0,0,0,0,0,0,0,0,0,0,0,0,0,0,0,0,0,0,0,0,0,0,0,0,0,0,0,0,0,0,0,0,0,0,0,0,0,0,0,0,0,0,0,0,0,0,0,0,0,0,0,0,0,0,0,0,0,0,0,0,0,0,0,0,0,0,0,0,0,0,0,0,0,0,0,0,0,0,0,0,0,0,0,0,0,0,0,0,0,0,0,0,0,0],"sum_hessian":[1.68E3,1.297E3,3.83E2,1.168E3,1.29E2,1.77E2,2.06E2,3.19E2,8.49E2,6.7E1,6.2E1,7.5E1,1.02E2,1.93E2,1.3E1,3.09E2,1E1,6.56E2,1.93E2,2E0,6.5E1,2.4E1,3.8E1,5.3E1,2.2E1,2.2E1,8E1,6.4E1,1.29E2,9E0,4E0,2.16E2,9.3E1,7E0,3E0,4.7E1,6.09E2,1.86E2,7E0,1E0,1E0,5E1,1.5E1,1.9E1,5E0,1.5E1,2.3E1,4.4E1,9E0,5E0,1.7E1,1.8E1,4E0,5.5E1,2.5E1,6.1E1,3E0,2E0,1.27E2,7E0,2E0,2E0,2E0,4.2E1,1.74E2,1E1,8.3E1,5E0,2E0,2E0,1E0,5E0,4.2E1,7E1,5.39E2,3E0,1.83E2,3E0,4E0,4.3E1,7E0,2E0,1.3E1,5E0,1.4E1,4E0,1E0,1.4E1,1E0,1.6E1,7E0,1.2E1,3.2E1,8E0,1E0,1E0,4E0,1.3E1,4E0,1.7E1,1E0,2E0,2E0,5E0,5E1,1.1E1,1.4E1,2.9E1,3.2E1,4.7E1,8E1,1E0,1E0],"tree_param":{"num_deleted":"0","num_feature":"7","num_nodes":"113","size_leaf_vector":"1"}},{"base_weights":[4.425864E-2,-1.5593298E-1,2.516115E0,-5.926741E-1,3.1059527E-1,3.290941E0,-3.1330994E-1,-6.8726057E-1,1.7880559E0,5.479359E-1,-1.0245677E0,3.4695787E0,3.001107E0,-1.0109981E0,3.0982552E0,-2.6819813E-1,-1.3238533E0,-3.2804403E-1,6.9971943E0,-1.5665466E0,7.693764E-1,-1.689879E0,8.9463294E-1,5.1815476E0,2.129656E0,-1.2718885E0,-1.5329066E-1,3.7394333E-1,1.1751844E0,4.6439448E-1,-1.0282913E0,-2.1350212E0,-8.2002866E-1,-1.7525272E0,2.561928E0,2.5843507E-1,7.656481E0,-4.6730694E-1,-6.016166E0,2.9114795E0,5.967373E-1,-3.4916952E-1,-3.4197407E0,-2.8172157E0,2.1468136E0,1.4497769E0,6.96689E0,-2.7522242E0,2.8827069E0,-1.1806418E0,3.164891E0,-4.0817425E-1,2.0806475E-1,-1.01256445E-1,-6.239143E-1,-7.162485E-1,3.479826E-1,3.0556494E-1,-4.2815807E-1,-1.1596234E0,-2.9476749E-2,-2.0371057E-2,8.841957E-1,2.872122E0,1.3774133E0,-7.0878285E-1,6.787562E-1,-1.9021456E0,-3.672993E-1,3.7451065E-1,2.2908397E0,3.5492936E-1,-3.760581E-2,6.3532656E-1,-3.1080472E-1,-1.2084457E0,3.839166E-1,-1.1814564E0,7.5443834E-1,1.9573841E0,-5.287868E-2,1.9680449E0,-9.151489E-1,5.04673E-2,2.4946225E0,-1.4397758E0,1.0871776E0,-2.749981E-1,1.1160456E0,1.4571139E-1,-1.211651E0,1.3536775E0,2.2876817E-1],"categories":[],"categories_nodes":[],"categories_segments":[],"categories_sizes":[],"default_left":[0,0,0,0,0,0,0,0,0,0,0,0,0,0,0,0,0,0,0,0,0,0,0,0,0,0,0,0,0,0,0,0,0,0,0,0,0,0,0,0,0,0,0,0,0,0,0,0,0,0,0,0,0,0,0,0,0,0,0,0,0,0,0,0,0,0,0,0,0,0,0,0,0,0,0,0,0,0,0,0,0,0,0,0,0,0,0,0,0,0,0,0,0],"id":8,"left_children":[1,3,5,7,9,11,13,15,17,19,21,-1,23,25,27,29,31,33,35,37,39,41,43,45,47,-1,49,-1,-1,51,53,55,57,59,61,-1,63,65,67,69,71,73,75,77,79,81,83,85,87,89,91,-1,-1,-1,-1,-1,-1,-1,-1,-1,-1,-1,-1,-1,-1,-1,-1,-1,-1,-1,-1,-1,-1,-1,-1,-1,-1,-1,-1,-1,-1,-1,-1,-1,-1,-1,-1,-1,-1,-1,-1,-1,-1],"loss_changes":[8.3222656E2,3.172223E2,2.7726245E2,1.8227753E2,2.3917834E2,2.0271118E2,6.9778175E1,2.0612656E2,3.4401013E2,3.0087378E2,1.4707452E2,0E0,1.7327936E2,6.5811386E1,2.7004623E0,2.6107803E2,1.2371588E2,9.917433E1,2.9811249E1,2.955517E2,2.1275278E2,1.959415E2,1.4548518E2,1.697868E2,2.689514E2,0E0,7.191535E1,0E0,0E0,1.008938E2,1.6634508E2,1.0010077E2,2.1467082E2,5.554474E1,8.308235E0,0E0,3.0561218E0,2.6403787E2,1.0886139E1,3.2834497E2,2.279402E2,8.521953E1,1.10945496E2,5.7720005E1,2.3505917E2,2.4999246E2,1.6362732E2,1.4791371E2,2.0067932E2,7.816556E1,1.2743233E1,0E0,0E0,0E0,0E0,0E0,0E0,0E0,0E0,0E0,0E0,0E0,0E0,0E0,0E0,0E0,0E0,0E0,0E0,0E0,0E0,0E0,0E0,0E0,0E0,0E0,0E0,0E0,0E0,0E0,0E0,0E0,0E0,0E0,0E0,0E0,0E0,0E0,0E0,0E0,0E0,0E0,0E0],"parents":[2147483647,0,0,1,1,2,2,3,3,4,4,5,5,6,6,7,7,8,8,9,9,10,10,12,12,13,13,14,14,15,15,16,16,17,17,18,18,19,19,20,20,21,21,22,22,23,23,24,24,26,26,29,29,30,30,31,31,32,32,33,33,34,34,36,36,37,37,38,38,39,39,40,40,41,41,42,42,43,43,44,44,45,45,46,46,47,47,48,48,49,49,50,50],"right_children":[2,4,6,8,10,12,14,16,18,20,22,-1,24,26,28,30,32,34,36,38,40,42,44,46,48,-1,50,-1,-1,52,54,56,58,60,62,-1,64,66,68,70,72,74,76,78,80,82,84,86,88,90,92,-1,-1,-1,-1,-1,-1,-1,-1,-1,-1,-1,-1,-1,-1,-1,-1,-1,-1,-1,-1,-1,-1,-1,-1,-1,-1,-1,-1,-1,-1,-1,-1,-1,-1,-1,-1,-1,-1,-1,-1,-1,-1],"split_conditions":[4.9E1,2.1E1,2.4E0,1.9843584E1,2.9525995E2,2.3E1,6E1,1.07165E1,1E-1,6.049757E1,3.7E1,3.4695787E0,1.3627795E1,5.1E1,5.6E1,1.8345877E1,1E-1,1.9E1,1.1E1,1.9134262E1,-6.4808327E-1,2.7E1,3.5E1,1.1200571E1,1.5484185E1,-1.2718885E0,4.3E1,3.7394333E-1,1.1751844E0,-3.8085E0,8.000001E-1,2.2725668E1,1.639867E2,1.4587776E1,4.972019E1,2.5843507E-1,1.5E1,2E-1,3.3E1,1.8671474E1,2.1567303E2,1.4E1,2.5E0,4.9E1,4.4E1,4.4E1,5E1,7.4E1,2.7E1,4.7E1,5.1E1,-4.0817425E-1,2.0806475E-1,-1.01256445E-1,-6.239143E-1,-7.162485E-1,3.479826E-1,3.0556494E-1,-4.2815807E-1,-1.1596234E0,-2.9476749E-2,-2.0371057E-2,8.841957E-1,2.872122E0,1.3774133E0,-7.0878285E-1,6.787562E-1,-1.9021456E0,-3.672993E-1,3.7451065E-1,2.2908397E0,3.5492936E-1,-3.760581E-2,6.3532656E-1,-3.1080472E-1,-1.2084457E0,3.839166E-1,-1.1814564E0,7.5443834E-1,1.9573841E0,-5.287868E-2,1.9680449E0,-9.151489E-1,5.04673E-2,2.4946225E0,-1.4397758E0,1.0871776E0,-2.749981E-1,1.1160456E0,1.4571139E-1,-1.211651E0,1.3536775E0,2.2876817E-1],"split_indices":[0,0,4,3,6,1,1,3,4,6,2,0,5,0,0,5,4,1,0,5,3,1,1,5,5,0,2,0,0,3,4,5,6,5,6,0,1,4,2,5,6,2,4,2,2,1,0,1,2,1,2,0,0,0,0,0,0,0,0,0,0,0,0,0,0,0,0,0,0,0,0,0,0,0,0,0,0,0,0,0,0,0,0,0,0,0,0,0,0,0,0,0,0],"split_type":[0,0,0,0,0,0,0,0,0,0,0,0,0,0,0,0,0,0,0,0,0,0,0,0,0,0,0,0,0,0,0,0,0,0,0,0,0,0,0,0,0,0,0,0,0,0,0,0,0,0,0,0,0,0,0,0,0,0,0,0,0,0,0,0,0,0,0,0,0,0,0,0,0,0,0,0,0,0,0,0,0,0,0,0,0,0,0,0,0,0,0,0,0],"sum_hessian":[1.68E3,1.555E3,1.25E2,8.03E2,7.52E2,9.8E1,2.7E1,7.73E2,3E1,6.39E2,1.13E2,2E0,9.6E1,2.3E1,4E0,4.67E2,3.06E2,2.2E1,8E0,6E1,5.79E2,8.4E1,2.9E1,2.6E1,7E1,4E0,1.9E1,2E0,2E0,2.38E2,2.29E2,1.16E2,1.9E2,1.5E1,7E0,1E0,7E0,4.9E1,1.1E1,4.2E1,5.37E2,4.8E1,3.6E1,7E0,2.2E1,9E0,1.7E1,9E0,6.1E1,1.5E1,4E0,2.6E1,2.12E2,1.39E2,9E1,1.08E2,8E0,4.7E1,1.43E2,6E0,9E0,1E0,6E0,3E0,4E0,2.9E1,2E1,1E1,1E0,3.2E1,1E1,2.96E2,2.41E2,1E1,3.8E1,3.2E1,4E0,6E0,1E0,7E0,1.5E1,4E0,5E0,3E0,1.4E1,7E0,2E0,1.1E1,5E1,1E1,5E0,2E0,2E0],"tree_param":{"num_deleted":"0","num_feature":"7","num_nodes":"93","size_leaf_vector":"1"}},{"base_weights":[3.8581718E-2,-9.0171844E-2,2.0536392E0,1.1350831E0,-2.0999889E-1,3.781486E0,1.3391021E0,2.4229307E0,-2.8309044E-1,-1.7261009E-1,-3.7529209E0,1.1393176E0,7.429615E0,-4.445856E0,1.6505411E0,-2.5177085E-1,3.559377E0,-8.0405396E-1,1.9325584E0,-5.0926703E-1,1.887282E-1,-5.869441E0,-1.1672853E0,1.8582896E0,-1.8416567E0,1.0187552E1,2.9737518E0,-3.5409337E-1,-1.5422803E0,4.3137302E0,1.1347808E0,6.4114743E-1,-1.0783519E0,3.3643484E-1,4.415863E0,-1.3471019E0,2.6642501E0,-5.9205884E-1,1.4671146E0,-1.8578597E0,2.7178875E-1,-6.5043063E0,-2.1380769E-1,-1.9670249E0,6.646338E-1,1.2589929E0,9.23981E-1,-6.67445E-1,-1.0382653E-1,3.4460204E0,3.5886955E-1,1.3584927E0,1.0643959E0,6.1359606E0,-7.772614E-1,4.4424E-1,3.1767871E0,8.227385E-1,-3.061016E-2,-5.495271E-1,4.9485013E-1,1.000878E0,2.5356581E0,-2.1671781E-1,-1.3587619E0,-1.2372179E-1,1.9839516E0,-8.5970804E-2,-3.2056752E-1,-6.2411685E-2,1.6196765E0,-6.8443996E-1,1.3733875E0,2.0038582E-1,-8.2759E-2,-5.4118484E-1,-2.0961125E0,1.6858035E-1,-7.446522E-1,-1.5516472E-1,4.3855453E-1,9.28751E-2,3.6384162E-1,2.5799918E0,2.7178574E-1,2.9467914E-1,-2.2784564E0,-3.765793E-2,1.452149E0],"categories":[],"categories_nodes":[],"categories_segments":[],"categories_sizes":[],"default_left":[0,0,0,0,0,0,0,0,0,0,0,0,0,0,0,0,0,0,0,0,0,0,0,0,0,0,0,0,0,0,0,0,0,0,0,0,0,0,0,0,0,0,0,0,0,0,0,0,0,0,0,0,0,0,0,0,0,0,0,0,0,0,0,0,0,0,0,0,0,0,0,0,0,0,0,0,0,0,0,0,0,0,0,0,0,0,0,0,0],"id":9,"left_children":[1,3,5,7,9,11,13,15,17,19,21,23,25,27,29,31,33,35,-1,37,39,41,43,45,47,49,51,-1,-1,53,55,57,-1,59,61,63,65,67,69,71,73,75,-1,77,-1,-1,79,-1,-1,-1,-1,-1,81,83,-1,85,87,-1,-1,-1,-1,-1,-1,-1,-1,-1,-1,-1,-1,-1,-1,-1,-1,-1,-1,-1,-1,-1,-1,-1,-1,-1,-1,-1,-1,-1,-1,-1,-1],"loss_changes":[4.3631357E2,2.3235872E2,1.1963187E2,2.582071E2,1.9023517E2,2.7106546E2,1.3885938E2,2.2583063E2,2.434145E2,1.7368643E2,7.523695E1,4.20006E1,1.1717267E2,3.0113297E0,9.125458E1,7.0954765E1,1.4205542E2,1.2413014E2,0E0,1.2178987E2,1.17628555E2,2.1555176E1,2.600027E1,2.8893528E1,1.5221844E0,6.802875E1,1.2989307E1,0E0,0E0,1.5429701E2,8.319407E1,2.9951317E1,0E0,3.718522E1,1.504643E2,1.0804996E2,1.12072586E2,1.03045334E2,1.9871463E2,8.4053375E1,1.4402876E2,3.2788696E0,0E0,1.05143585E1,0E0,0E0,1.0058164E1,0E0,0E0,0E0,0E0,0E0,7.262087E-2,1.0819006E2,0E0,2.0642046E2,8.301897E1,0E0,0E0,0E0,0E0,0E0,0E0,0E0,0E0,0E0,0E0,0E0,0E0,0E0,0E0,0E0,0E0,0E0,0E0,0E0,0E0,0E0,0E0,0E0,0E0,0E0,0E0,0E0,0E0,0E0,0E0,0E0,0E0],"parents":[2147483647,0,0,1,1,2,2,3,3,4,4,5,5,6,6,7,7,8,8,9,9,10,10,11,11,12,12,13,13,14,14,15,15,16,16,17,17,19,19,20,20,21,21,22,22,23,23,24,24,25,25,26,26,29,29,30,30,31,31,33,33,34,34,35,35,36,36,37,37,38,38,39,39,40,40,41,41,43,43,46,46,52,52,53,53,55,55,56,56],"right_children":[2,4,6,8,10,12,14,16,18,20,22,24,26,28,30,32,34,36,-1,38,40,42,44,46,48,50,52,-1,-1,54,56,58,-1,60,62,64,66,68,70,72,74,76,-1,78,-1,-1,80,-1,-1,-1,-1,-1,82,84,-1,86,88,-1,-1,-1,-1,-1,-1,-1,-1,-1,-1,-1,-1,-1,-1,-1,-1,-1,-1,-1,-1,-1,-1,-1,-1,-1,-1,-1,-1,-1,-1,-1,-1],"split_conditions":[5.1E1,1.1659777E1,1.374943E2,9.44775E0,1.6400002E1,9.791882E1,1.4490045E2,1.081073E2,9.299999E0,2.1E1,8.408169E0,7.4623726E1,1.5000001E0,5.2E1,1.2522619E1,8.633059E1,1.7E1,1.1304229E1,1.9325584E0,1.9843584E1,4.3548153E1,2.31E1,2.6E1,4.4E1,5.6E1,6.5E1,4.2E1,-3.5409337E-1,-1.5422803E0,5.5E1,5.6E1,1.7E1,-1.0783519E0,1.0805998E1,6.32275E0,3.8E1,2.8E1,1.07165E1,1E-1,3.9E0,2.3920512E2,4.3548153E1,-2.1380769E-1,1.8699997E1,6.646338E-1,1.2589929E0,1.5964287E1,-6.67445E-1,-1.0382653E-1,3.4460204E0,3.5886955E-1,1.3584927E0,5.2E1,7.970667E0,-7.772614E-1,5.1E1,4.7769165E0,8.227385E-1,-3.061016E-2,-5.495271E-1,4.9485013E-1,1.000878E0,2.5356581E0,-2.1671781E-1,-1.3587619E0,-1.2372179E-1,1.9839516E0,-8.5970804E-2,-3.2056752E-1,-6.2411685E-2,1.6196765E0,-6.8443996E-1,1.3733875E0,2.0038582E-1,-8.2759E-2,-5.4118484E-1,-2.0961125E0,1.6858035E-1,-7.446522E-1,-1.5516472E-1,4.3855453E-1,9.28751E-2,3.6384162E-1,2.5799918E0,2.7178574E-1,2.9467914E-1,-2.2784564E0,-3.765793E-2,1.452149E0],"split_indices":[0,5,6,3,4,6,6,6,4,0,3,6,4,0,5,6,0,5,0,3,6,4,1,1,1,1,2,0,0,2,2,1,0,5,3,0,0,3,4,4,6,6,0,4,0,0,6,0,0,0,0,0,0,3,0,2,3,0,0,0,0,0,0,0,0,0,0,0,0,0,0,0,0,0,0,0,0,0,0,0,0,0,0,0,0,0,0,0,0],"split_type":[0,0,0,0,0,0,0,0,0,0,0,0,0,0,0,0,0,0,0,0,0,0,0,0,0,0,0,0,0,0,0,0,0,0,0,0,0,0,0,0,0,0,0,0,0,0,0,0,0,0,0,0,0,0,0,0,0,0,0,0,0,0,0,0,0,0,0,0,0,0,0,0,0,0,0,0,0,0,0,0,0,0,0,0,0,0,0,0,0],"sum_hessian":[1.68E3,1.58E3,1E2,1.4E2,1.44E3,2.8E1,7.2E1,7.3E1,6.7E1,1.426E3,1.4E1,1.7E1,1.1E1,3E0,6.9E1,2.2E1,5.1E1,6.3E1,4E0,7.38E2,6.88E2,7E0,7E0,1.4E1,3E0,6E0,5E0,1E0,2E0,1E1,5.9E1,1.8E1,4E0,1.1E1,4E1,5.5E1,8E0,7.09E2,2.9E1,2.6E1,6.62E2,6E0,1E0,6E0,1E0,3E0,1.1E1,2E0,1E0,5E0,1E0,2E0,3E0,8E0,2E0,4.5E1,1.4E1,4E0,1.4E1,4E0,7E0,3.3E1,7E0,4.7E1,8E0,5E0,3E0,4.33E2,2.76E2,2.1E1,8E0,2.5E1,1E0,3.84E2,2.78E2,1E0,5E0,1E0,5E0,3E0,8E0,1E0,2E0,5E0,3E0,4.3E1,2E0,5E0,9E0],"tree_param":{"num_deleted":"0","num_feature":"7","num_nodes":"89","size_leaf_vector":"1"}},{"base_weights":[3.3317592E-2,-7.510966E-2,1.3720437E0,-5.5308646E-1,1.0151775E-1,2.1253889E0,-4.2847648E-1,-6.610096E-1,1.893919E0,2.3183218E-1,-9.649367E-1,1.3770978E0,3.9859302E0,-9.868168E-1,3.453933E0,-1.5624219E0,-3.968258E-1,3.803448E-1,2.8005028E0,8.5336044E-2,1.8527379E0,5.5672985E-1,-2.0356452E0,1.7072688E0,-1.8046573E0,2.4024577E0,2.5799553E0,-5.332774E-1,-1.276513E0,1.3846431E0,-1.7883626E-1,-1.1946212E0,-6.5738277E0,1.3747264E0,-7.632373E-1,1.1932778E0,-2.3567736E0,-4.292443E-2,1.6395181E0,2.2331005E-2,3.5162365E0,1.05190426E-1,3.537786E0,-1.4480616E0,-5.215838E0,2.6931748E0,-1.3571538E0,3.681679E0,4.2988926E-1,3.1523386E-1,-2.1046827E0,-5.376287E-1,3.2102305E-2,1.31777E-1,-2.4192889E0,9.732812E-2,3.4808328E0,-3.43418E-1,1.1965255E-1,-9.153168E-1,5.4036814E-1,-1.2198129E-1,-8.613886E-1,9.182839E-3,-8.17034E-1,1.04486294E-1,1.8169066E0,1.719879E0,-6.014193E-1,2.1570931E-1,1.6840055E0,-2.896717E-1,1.0996902E0,-9.04554E-1,-1.9471467E-1,-1.8721099E0,7.544163E-1,1.3225893E0,3.9311948E-1,5.9538084E-1,-1.2530428E0,1.4527457E0,3.2641596E-1,-2.2628842E-1,6.296079E-1,-4.661879E-1,6.467309E-1,2.3133226E-1,-1.157445E0],"categories":[],"categories_nodes":[],"categories_segments":[],"categories_sizes":[],"default_left":[0,0,0,0,0,0,0,0,0,0,0,0,0,0,0,0,0,0,0,0,0,0,0,0,0,0,0,0,0,0,0,0,0,0,0,0,0,0,0,0,0,0,0,0,0,0,0,0,0,0,0,0,0,0,0,0,0,0,0,0,0,0,0,0,0,0,0,0,0,0,0,0,0,0,0,0,0,0,0,0,0,0,0,0,0,0,0,0,0],"id":10,"left_children":[1,3,5,7,9,11,13,15,17,19,21,23,25,27,29,31,33,35,-1,37,39,41,43,45,-1,47,-1,49,-1,-1,-1,51,53,55,57,59,61,63,65,67,69,71,-1,73,75,77,79,81,83,85,87,-1,-1,-1,-1,-1,-1,-1,-1,-1,-1,-1,-1,-1,-1,-1,-1,-1,-1,-1,-1,-1,-1,-1,-1,-1,-1,-1,-1,-1,-1,-1,-1,-1,-1,-1,-1,-1,-1],"loss_changes":[2.4410759E2,1.314196E2,1.7181876E2,1.1216905E2,1.582376E2,1.1841916E2,8.578122E1,9.534984E1,1.9917703E2,2.406227E2,2.0316173E2,1.6892401E2,1.6198962E2,4.8128036E1,2.6272953E1,1.598778E2,2.0422292E2,3.8413788E1,0E0,1.8565602E2,2.5569135E2,2.6257877E2,1.2885706E2,1.9399272E2,0E0,4.8884323E1,0E0,4.1997475E1,0E0,0E0,0E0,6.70731E1,6.6259E1,5.7633154E2,1.15719955E2,3.9040047E1,2.846136E0,1.6979442E2,4.028146E2,4.860982E2,2.5407056E2,1.9797133E2,0E0,7.69283E1,1.028147E2,1.08083374E2,1.5905093E2,3.0859482E1,1.9368568E1,7.559665E1,5.8443672E1,0E0,0E0,0E0,0E0,0E0,0E0,0E0,0E0,0E0,0E0,0E0,0E0,0E0,0E0,0E0,0E0,0E0,0E0,0E0,0E0,0E0,0E0,0E0,0E0,0E0,0E0,0E0,0E0,0E0,0E0,0E0,0E0,0E0,0E0,0E0,0E0,0E0,0E0],"parents":[2147483647,0,0,1,1,2,2,3,3,4,4,5,5,6,6,7,7,8,8,9,9,10,10,11,11,12,12,13,13,14,14,15,15,16,16,17,17,19,19,20,20,21,21,22,22,23,23,25,25,27,27,31,31,32,32,33,33,34,34,35,35,36,36,37,37,38,38,39,39,40,40,41,41,43,43,44,44,45,45,46,46,47,47,48,48,49,49,50,50],"right_children":[2,4,6,8,10,12,14,16,18,20,22,24,26,28,30,32,34,36,-1,38,40,42,44,46,-1,48,-1,50,-1,-1,-1,52,54,56,58,60,62,64,66,68,70,72,-1,74,76,78,80,82,84,86,88,-1,-1,-1,-1,-1,-1,-1,-1,-1,-1,-1,-1,-1,-1,-1,-1,-1,-1,-1,-1,-1,-1,-1,-1,-1,-1,-1,-1,-1,-1,-1,-1,-1,-1,-1,-1,-1,-1],"split_conditions":[4.9E1,1.5E1,1.9493261E1,1.95665E1,4.3E1,1.6981165E1,8E1,1.4615042E2,3.6000001E0,3.9E1,1.9449628E2,1.6645864E1,2.1957286E2,8.7E0,4.2E1,1.3962906E2,1.9862555E2,1.4E1,2.8005028E0,4.4E1,3E1,1.914904E2,5.8E1,2.4290553E2,-1.8046573E0,1.1264417E1,2.5799553E0,6E1,-1.276513E0,1.3846431E0,-1.7883626E-1,1.803237E1,1.3E1,1.9392032E2,1.7E1,5E0,1.4E1,3.9E1,3.3E1,2.7E1,1.5696165E1,1.4916497E1,3.537786E0,2.5132146E2,4.5E1,5.6E1,1.4494192E1,6E1,1.8128368E2,5.5E1,3.5789998E0,-5.376287E-1,3.2102305E-2,1.31777E-1,-2.4192889E0,9.732812E-2,3.4808328E0,-3.43418E-1,1.1965255E-1,-9.153168E-1,5.4036814E-1,-1.2198129E-1,-8.613886E-1,9.182839E-3,-8.17034E-1,1.04486294E-1,1.8169066E0,1.719879E0,-6.014193E-1,2.1570931E-1,1.6840055E0,-2.896717E-1,1.0996902E0,-9.04554E-1,-1.9471467E-1,-1.8721099E0,7.544163E-1,1.3225893E0,3.9311948E-1,5.9538084E-1,-1.2530428E0,1.4527457E0,3.2641596E-1,-2.2628842E-1,6.296079E-1,-4.661879E-1,6.467309E-1,2.3133226E-1,-1.157445E0],"split_indices":[0,2,5,3,1,5,0,6,4,0,6,5,6,4,2,6,6,2,0,2,2,6,1,6,0,3,0,0,0,0,0,5,0,6,1,2,0,1,0,1,5,3,0,6,0,0,5,0,6,0,3,0,0,0,0,0,0,0,0,0,0,0,0,0,0,0,0,0,0,0,0,0,0,0,0,0,0,0,0,0,0,0,0,0,0,0,0,0,0],"split_type":[0,0,0,0,0,0,0,0,0,0,0,0,0,0,0,0,0,0,0,0,0,0,0,0,0,0,0,0,0,0,0,0,0,0,0,0,0,0,0,0,0,0,0,0,0,0,0,0,0,0,0,0,0,0,0,0,0,0,0,0,0,0,0,0,0,0,0,0,0,0,0,0,0,0,0,0,0,0,0,0,0,0,0,0,0,0,0,0,0],"sum_hessian":[1.68E3,1.555E3,1.25E2,4.19E2,1.136E3,8.8E1,3.7E1,4.02E2,1.7E1,1.013E3,1.23E2,6.4E1,2.4E1,3.3E1,4E0,9E1,3.12E2,1.5E1,2E0,9.3E2,8.3E1,5.1E1,7.2E1,6.2E1,2E0,1.9E1,5E0,3E1,3E0,3E0,1E0,8.5E1,5E0,5.3E1,2.59E2,1.2E1,3E0,8.6E2,7E1,4E1,4.3E1,5E1,1E0,6.2E1,1E1,4.7E1,1.5E1,1.1E1,8E0,2E1,1E1,5.8E1,2.7E1,1E0,4E0,4.9E1,4E0,1.95E2,6.4E1,1E0,1.1E1,1E0,2E0,8.38E2,2.2E1,5.5E1,1.5E1,1E1,3E1,1.9E1,2.4E1,3.9E1,1.1E1,2E1,4.2E1,9E0,1E0,2E1,2.7E1,7E0,8E0,7E0,4E0,5E0,3E0,1E1,1E1,4E0,6E0],"tree_param":{"num_deleted":"0","num_feature":"7","num_nodes":"89","size_leaf_vector":"1"}},{"base_weights":[3.014337E-2,-1.8320844E-1,4.069685E-1,-2.2864617E-1,2.6554003E0,5.980904E-1,-1.094666E0,5.988106E0,-2.4609089E-1,9.36171E-1,1.9782948E0,1.110539E-1,1.254048E0,2.3560917E0,-1.4010704E0,2.2770853E0,4.175623E-1,-6.3801475E-2,-7.343026E-1,-1.22633405E-1,2.6547847E0,2.7429804E-1,-5.3971715E0,5.780417E0,7.715879E-1,-1.1554505E0,6.422764E0,-2.3367825E0,3.6853737E-1,-7.8162926E-1,2.4528915E-1,-3.1680307E-1,-1.9102105E0,-5.149783E-1,9.6044606E-1,4.990225E-2,9.705932E-1,1.5374129E-1,4.7006106E0,-5.8473045E-1,-1.8311673E0,1.0672366E1,8.1442875E-1,2.0124342E0,1.5889296E-1,2.2407825E0,4.9248448E-1,-3.3002145E0,-5.6494194E-1,2.4595678E0,-1.4291451E0,-3.1996816E-1,7.406204E-1,1.6056671E0,5.0409626E-2,-1.5000892E-1,7.621596E-1,-7.051908E-1,1.7937262E-1,-7.472163E-2,3.7564924E-1,2.919614E-1,-1.3035253E-1,3.5858328E0,5.871143E-1,3.8032012E0,3.2999995E-1,5.3880936E-1,-8.1871665E-1,1.1759223E0,3.7872297E-1,-2.7567026E-1,5.7370657E-1,-1.0996846E0,9.3003017E-1,1.8935023E-1,-7.990957E-1,1.4304563E0,-8.317692E-1,-5.64039E-1,1.668091E-2],"categories":[],"categories_nodes":[],"categories_segments":[],"categories_sizes":[],"default_left":[0,0,0,0,0,0,0,0,0,0,0,0,0,0,0,0,0,0,0,0,0,0,0,0,0,0,0,0,0,0,0,0,0,0,0,0,0,0,0,0,0,0,0,0,0,0,0,0,0,0,0,0,0,0,0,0,0,0,0,0,0,0,0,0,0,0,0,0,0,0,0,0,0,0,0,0,0,0,0,0,0],"id":11,"left_children":[1,3,5,7,9,11,13,15,17,19,-1,21,23,25,27,-1,-1,29,31,33,35,37,39,41,43,-1,45,47,49,51,53,55,57,-1,59,-1,-1,61,63,-1,-1,65,67,69,71,-1,-1,73,75,77,79,-1,-1,-1,-1,-1,-1,-1,-1,-1,-1,-1,-1,-1,-1,-1,-1,-1,-1,-1,-1,-1,-1,-1,-1,-1,-1,-1,-1,-1,-1],"loss_changes":[1.3522078E2,1.3913165E2,1.751478E2,1.1621309E2,1.08948875E2,1.723774E2,7.625663E1,1.1527222E1,9.393273E1,2.398135E1,0E0,2.8112714E2,4.9781223E2,1.7620277E2,1.0683516E2,0E0,0E0,1.7103458E2,1.402949E2,1.7186172E1,6.684868E0,1.6096475E2,1.0034271E1,5.25762E2,1.5857463E2,0E0,7.7524414E0,6.983156E1,8.997228E1,2.1749524E2,2.1176137E2,1.12784325E2,8.425342E1,0E0,2.4289083E0,0E0,0E0,1.4310939E2,1.3578201E2,0E0,0E0,1.9717041E2,4.6640976E1,9.3758026E1,2.68229E2,0E0,0E0,7.450815E1,4.1845802E1,1.4608914E2,8.809324E0,0E0,0E0,0E0,0E0,0E0,0E0,0E0,0E0,0E0,0E0,0E0,0E0,0E0,0E0,0E0,0E0,0E0,0E0,0E0,0E0,0E0,0E0,0E0,0E0,0E0,0E0,0E0,0E0,0E0,0E0],"parents":[2147483647,0,0,1,1,2,2,3,3,4,4,5,5,6,6,7,7,8,8,9,9,11,11,12,12,13,13,14,14,17,17,18,18,19,19,20,20,21,21,22,22,23,23,24,24,26,26,27,27,28,28,29,29,30,30,31,31,32,32,34,34,37,37,38,38,41,41,42,42,43,43,44,44,47,47,48,48,49,49,50,50],"right_children":[2,4,6,8,10,12,14,16,18,20,-1,22,24,26,28,-1,-1,30,32,34,36,38,40,42,44,-1,46,48,50,52,54,56,58,-1,60,-1,-1,62,64,-1,-1,66,68,70,72,-1,-1,74,76,78,80,-1,-1,-1,-1,-1,-1,-1,-1,-1,-1,-1,-1,-1,-1,-1,-1,-1,-1,-1,-1,-1,-1,-1,-1,-1,-1,-1,-1,-1,-1],"split_conditions":[2.7E1,2.2072748E1,2.4087738E1,7.42159E0,2.3E1,1.7309975E1,1.639867E2,3.1E1,2.7193616E2,1.9262683E2,1.9782948E0,1.7163355E1,1.7673029E1,3.2E1,2.73755E2,2.2770853E0,4.175623E-1,1.4615042E2,2.2E1,1.3104198E1,1.5E1,7.4E1,1.5E1,2E-1,1.9171478E1,-1.1554505E0,1.33415E1,2.7748037E1,3.1094653E2,1.8743586E1,1.4913919E2,1.7458168E1,3.4346378E2,-5.149783E-1,1.3E1,4.990225E-2,9.705932E-1,6.4352508E0,3.2E1,-5.8473045E-1,-1.8311673E0,2.5132146E2,9.174834E0,1.6124841E2,2.5744308E2,2.2407825E0,4.9248448E-1,5.9E1,3.6999998E0,8.000001E-1,5E1,-3.1996816E-1,7.406204E-1,1.6056671E0,5.0409626E-2,-1.5000892E-1,7.621596E-1,-7.051908E-1,1.7937262E-1,-7.472163E-2,3.7564924E-1,2.919614E-1,-1.3035253E-1,3.5858328E0,5.871143E-1,3.8032012E0,3.2999995E-1,5.3880936E-1,-8.1871665E-1,1.1759223E0,3.7872297E-1,-2.7567026E-1,5.7370657E-1,-1.0996846E0,9.3003017E-1,1.8935023E-1,-7.990957E-1,1.4304563E0,-8.317692E-1,-5.64039E-1,1.668091E-2],"split_indices":[2,3,5,5,2,5,6,0,6,6,0,5,5,2,6,0,0,6,1,5,0,1,0,4,5,0,3,5,6,3,6,3,6,0,0,0,0,3,0,0,0,6,3,6,6,0,0,2,4,4,0,0,0,0,0,0,0,0,0,0,0,0,0,0,0,0,0,0,0,0,0,0,0,0,0,0,0,0,0,0,0],"split_type":[0,0,0,0,0,0,0,0,0,0,0,0,0,0,0,0,0,0,0,0,0,0,0,0,0,0,0,0,0,0,0,0,0,0,0,0,0,0,0,0,0,0,0,0,0,0,0,0,0,0,0,0,0,0,0,0,0,0,0,0,0,0,0,0,0,0,0,0,0,0,0,0,0,0,0,0,0,0,0,0,0],"sum_hessian":[1.68E3,1.073E3,6.07E2,1.057E3,1.6E1,5.39E2,6.8E1,2E0,1.055E3,1.2E1,4E0,3.1E2,2.29E2,5E0,6.3E1,1E0,1E0,7.69E2,2.86E2,8E0,4E0,3.02E2,8E0,2.1E1,2.08E2,2E0,3E0,4.1E1,2.2E1,2.31E2,5.38E2,2.12E2,7.4E1,3E0,5E0,1E0,3E0,2.95E2,7E0,2E0,6E0,1E1,1.1E1,6.8E1,1.4E2,2E0,1E0,2.6E1,1.5E1,1E1,1.2E1,2.13E2,1.8E1,7E0,5.31E2,2E2,1.2E1,6.3E1,1.1E1,1E0,4E0,1.23E2,1.72E2,1E0,6E0,8E0,2E0,9E0,2E0,1.8E1,5E1,8.7E1,5.3E1,2.5E1,1E0,1E1,5E0,7E0,3E0,9E0,3E0],"tree_param":{"num_deleted":"0","num_feature":"7","num_nodes":"81","size_leaf_vector":"1"}},{"base_weights":[3.0687971E-2,-3.4051675E-2,1.0437839E0,7.6900995E-1,-1.1260659E-1,5.4883375E0,8.517227E-1,1.663268E0,-2.154621E-1,-8.8547215E-2,-2.3939486E0,2.164032E0,4.695454E-2,-1.8774202E0,1.050117E0,1.3568547E-2,2.3609567E0,-5.934112E-1,1.3996136E0,-6.607218E-1,-2.257776E-3,-3.57532E0,-2.600495E-2,-1.2168627E0,7.7072334E-1,1.7045721E0,1.5671115E-1,6.1233884E-1,-6.793417E-1,1.5389175E0,4.286059E0,7.451673E-1,-1.5903513E0,-1.57461E-1,-1.930146E0,4.1777858E-1,-2.4425556E-1,1.89911E-1,-1.2339759E0,1.6813736E0,-3.900113E-1,-2.4701387E-1,4.7296527E-1,2.9874616E0,-2.3892961E-1,-3.90356E-1,1.2192757E0,4.6278667E-1,-3.608422E-1,1.0490953E0,-1.1945753E-1,3.6092037E-1,2.6130104E0,-4.3012965E-3,1.5917345E0,-1.9533737E0,-1.8539558E-1,6.011306E-1,-1.6522533E-1,-9.0111464E-1,4.812597E-1,-6.947402E-2,3.2744133E-1,3.266353E-2,-2.080095E-1,1.038487E-1,6.5276945E-1,1.0576477E-1,1.1553229E0,-3.9186996E-1,6.704263E-1,4.4092947E-1,-3.8027996E-1],"categories":[],"categories_nodes":[],"categories_segments":[],"categories_sizes":[],"default_left":[0,0,0,0,0,0,0,0,0,0,0,0,0,0,0,0,0,0,0,0,0,0,0,0,0,0,0,0,0,0,0,0,0,0,0,0,0,0,0,0,0,0,0,0,0,0,0,0,0,0,0,0,0,0,0,0,0,0,0,0,0,0,0,0,0,0,0,0,0,0,0,0,0],"id":12,"left_children":[1,3,5,7,9,11,13,15,17,19,21,-1,-1,23,25,27,29,31,-1,33,35,37,39,-1,41,43,45,47,-1,49,51,53,55,57,59,61,63,-1,-1,65,-1,-1,-1,67,69,71,-1,-1,-1,-1,-1,-1,-1,-1,-1,-1,-1,-1,-1,-1,-1,-1,-1,-1,-1,-1,-1,-1,-1,-1,-1,-1,-1],"loss_changes":[1.1028809E2,9.982309E1,8.15417E1,1.2449084E2,7.8881165E1,3.566275E1,5.5033264E1,8.514024E1,1.2820871E2,7.045323E1,4.1868332E1,0E0,0E0,4.3514427E1,5.3524727E1,3.2759155E1,7.569464E1,8.659197E1,0E0,1.1916129E2,1.26247055E2,2.5241951E1,1.5237385E1,0E0,6.436387E0,1.328586E2,8.709401E1,3.3938885E1,0E0,1.4552606E2,1.9410739E2,9.706272E1,1.7301785E2,1.15852264E2,2.0591985E2,1.9886328E2,1.25048996E2,0E0,0E0,1.2276697E0,0E0,0E0,0E0,7.145987E1,6.100289E1,6.0607132E1,0E0,0E0,0E0,0E0,0E0,0E0,0E0,0E0,0E0,0E0,0E0,0E0,0E0,0E0,0E0,0E0,0E0,0E0,0E0,0E0,0E0,0E0,0E0,0E0,0E0,0E0,0E0],"parents":[2147483647,0,0,1,1,2,2,3,3,4,4,5,5,6,6,7,7,8,8,9,9,10,10,13,13,14,14,15,15,16,16,17,17,19,19,20,20,21,21,22,22,24,24,25,25,26,26,27,27,29,29,30,30,31,31,32,32,33,33,34,34,35,35,36,36,39,39,43,43,44,44,45,45],"right_children":[2,4,6,8,10,12,14,16,18,20,22,-1,-1,24,26,28,30,32,-1,34,36,38,40,-1,42,44,46,48,-1,50,52,54,56,58,60,62,64,-1,-1,66,-1,-1,-1,68,70,72,-1,-1,-1,-1,-1,-1,-1,-1,-1,-1,-1,-1,-1,-1,-1,-1,-1,-1,-1,-1,-1,-1,-1,-1,-1,-1,-1],"split_conditions":[5.1E1,1.1659777E1,2.3E1,9.44775E0,1.6400002E1,5.6E1,3.1E1,1.081073E2,9.299999E0,1.3627795E1,2.31E1,2.164032E0,4.695454E-2,1.6520823E1,4E-1,8.633059E1,5.643584E0,1.9E1,1.3996136E0,3.1E1,2.0895903E2,1.4689589E1,1.3E1,-1.2168627E0,5.3E1,6E1,2.4752051E2,2.7E1,-6.793417E-1,2.6649997E-1,3.2E1,1.8E1,1.5181083E1,-3.064166E-1,3.0628986E2,1.5339368E2,7.306083E0,1.89911E-1,-1.2339759E0,1.2E1,-3.900113E-1,-2.4701387E-1,4.7296527E-1,2.7E1,7.2E1,5.2852497E0,1.2192757E0,4.6278667E-1,-3.608422E-1,1.0490953E0,-1.1945753E-1,3.6092037E-1,2.6130104E0,-4.3012965E-3,1.5917345E0,-1.9533737E0,-1.8539558E-1,6.011306E-1,-1.6522533E-1,-9.0111464E-1,4.812597E-1,-6.947402E-2,3.2744133E-1,3.266353E-2,-2.080095E-1,1.038487E-1,6.5276945E-1,1.0576477E-1,1.1553229E0,-3.9186996E-1,6.704263E-1,4.4092947E-1,-3.8027996E-1],"split_indices":[0,5,1,3,4,0,1,6,4,5,4,0,0,5,4,6,3,0,0,1,6,5,2,0,0,1,6,0,0,3,0,0,3,3,6,6,3,0,0,0,0,0,0,2,0,3,0,0,0,0,0,0,0,0,0,0,0,0,0,0,0,0,0,0,0,0,0,0,0,0,0,0,0],"split_type":[0,0,0,0,0,0,0,0,0,0,0,0,0,0,0,0,0,0,0,0,0,0,0,0,0,0,0,0,0,0,0,0,0,0,0,0,0,0,0,0,0,0,0,0,0,0,0,0,0,0,0,0,0,0,0,0,0,0,0,0,0,0,0,0,0,0,0,0,0,0,0,0,0],"sum_hessian":[1.68E3,1.58E3,1E2,1.4E2,1.44E3,3E0,9.7E1,7.3E1,6.7E1,1.426E3,1.4E1,2E0,1E0,6E0,9.1E1,2.2E1,5.1E1,6.3E1,4E0,1.86E2,1.24E3,9E0,5E0,3E0,3E0,5.2E1,3.9E1,1.8E1,4E0,3.7E1,1.4E1,2.7E1,3.6E1,1.34E2,5.2E1,4.53E2,7.87E2,1E0,8E0,2E0,3E0,1E0,2E0,3.1E1,2.1E1,3.5E1,4E0,1.2E1,6E0,1.8E1,1.9E1,9E0,5E0,2.4E1,3E0,5E0,3.1E1,2E1,1.14E2,4E1,1.2E1,2.31E2,2.22E2,4.41E2,3.46E2,1E0,1E0,8E0,2.3E1,1.5E1,6E0,1.1E1,2.4E1],"tree_param":{"num_deleted":"0","num_feature":"7","num_nodes":"73","size_leaf_vector":"1"}},{"base_weights":[2.6023572E-2,1.8090649E-1,-2.5919333E-1,-1.6994437E-2,9.1287196E-1,-2.4372973E0,-1.2625106E-1,-1.05166875E-1,2.1931753E0,-9.578421E-2,1.8075005E0,1.2270273E0,-2.7046623E0,1.2226708E0,-3.5080835E-1,-7.030054E-2,-4.8643265E0,6.274239E-1,4.8809547E0,-3.891407E-1,3.2395651E0,2.632937E0,2.8896714E-2,5.8737373E-1,-3.521147E-2,8.0989486E-1,-2.9659624E0,1.8175071E0,-3.6718729E0,1.7304133E-1,-1.1173222E0,-1.0863424E-1,3.8437324E0,-2.4126298E0,-1.2649155E0,2.7387195E0,-7.7465355E-1,2.8566182E0,2.464642E0,7.592986E-2,-4.6753826E0,2.1643996E0,4.957072E-2,4.113771E0,1.3202094E0,9.645861E-1,-2.2347608E0,-4.173433E-1,7.8179604E-1,-3.151926E0,-2.4164772E-1,3.5055295E-1,2.798696E0,-1.6919765E0,-1.7478615E0,-3.5997827E0,3.3704442E-1,-5.542913E0,-9.4749963E-1,1.0753005E-1,-1.2574667E-1,3.0583787E0,4.4402868E-1,-5.967806E-1,1.362216E-1,1.3075533E0,1.7135525E-1,-6.036122E-1,1.3299336E0,4.1244915E-1,1.6085752E0,2.18746E-1,-6.196031E-1,-5.733599E-1,-2.1171978E0,3.836277E-1,-4.817612E-1,2.355468E0,7.094823E-1,-1.2495017E0,5.399279E-1,-7.237393E-1,5.305973E-1,-9.5796907E-1,5.115173E-1,-6.80868E-1,-1.1296018E0,8.827143E-2,-1.9701292E-1,-4.682748E-1,1.2988747E0,1.2413481E0,6.9388584E-3,-5.9858334E-1,-7.6617055E-2,-1.6983019E0,-5.584637E-1,4.459975E-1,-2.5730941E-2,4.428546E-1,-2.0876377E0,-3.839682E-1,2.5705618E-1],"categories":[],"categories_nodes":[],"categories_segments":[],"categories_sizes":[],"default_left":[0,0,0,0,0,0,0,0,0,0,0,0,0,0,0,0,0,0,0,0,0,0,0,0,0,0,0,0,0,0,0,0,0,0,0,0,0,0,0,0,0,0,0,0,0,0,0,0,0,0,0,0,0,0,0,0,0,0,0,0,0,0,0,0,0,0,0,0,0,0,0,0,0,0,0,0,0,0,0,0,0,0,0,0,0,0,0,0,0,0,0,0,0,0,0,0,0,0,0,0,0,0,0],"id":13,"left_children":[1,3,5,7,9,11,13,15,17,19,21,23,25,27,29,31,33,35,37,39,41,43,45,-1,-1,47,49,51,53,55,57,59,61,-1,63,65,67,69,-1,71,73,-1,75,77,79,81,83,-1,-1,85,87,89,91,-1,93,95,97,99,101,-1,-1,-1,-1,-1,-1,-1,-1,-1,-1,-1,-1,-1,-1,-1,-1,-1,-1,-1,-1,-1,-1,-1,-1,-1,-1,-1,-1,-1,-1,-1,-1,-1,-1,-1,-1,-1,-1,-1,-1,-1,-1,-1,-1],"loss_changes":[7.430544E1,1.5790927E2,1.7111305E2,1.6762918E2,2.0952357E2,3.6628876E1,1.6975572E2,1.368858E2,1.3581458E2,1.0888973E2,1.8050317E2,3.177607E0,3.1789505E1,2.3958987E2,1.929316E2,1.2374991E2,5.845607E1,6.7245964E1,5.7533813E1,2.0368228E2,1.1376729E2,1.5785919E2,8.687883E1,0E0,0E0,1.5485109E1,1.4437012E1,1.02652756E2,2.422113E1,1.7817715E2,1.4130325E2,1.1835334E2,1.0500009E2,0E0,5.8838882E0,2.9109077E1,9.9135895E1,2.6039154E1,0E0,1.3158786E2,5.2353302E1,0E0,1.4262615E1,2.3636511E2,1.2849603E2,8.301315E1,5.0758976E1,0E0,0E0,6.609497E0,8.605065E-1,2.3493185E2,1.5972873E2,0E0,1.7059937E0,3.2456512E1,1.337976E2,7.983977E1,1.1445076E2,0E0,0E0,0E0,0E0,0E0,0E0,0E0,0E0,0E0,0E0,0E0,0E0,0E0,0E0,0E0,0E0,0E0,0E0,0E0,0E0,0E0,0E0,0E0,0E0,0E0,0E0,0E0,0E0,0E0,0E0,0E0,0E0,0E0,0E0,0E0,0E0,0E0,0E0,0E0,0E0,0E0,0E0,0E0,0E0],"parents":[2147483647,0,0,1,1,2,2,3,3,4,4,5,5,6,6,7,7,8,8,9,9,10,10,11,11,12,12,13,13,14,14,15,15,16,16,17,17,18,18,19,19,20,20,21,21,22,22,25,25,26,26,27,27,28,28,29,29,30,30,31,31,32,32,34,34,35,35,36,36,37,37,39,39,40,40,42,42,43,43,44,44,45,45,46,46,49,49,50,50,51,51,52,52,54,54,55,55,56,56,57,57,58,58],"right_children":[2,4,6,8,10,12,14,16,18,20,22,24,26,28,30,32,34,36,38,40,42,44,46,-1,-1,48,50,52,54,56,58,60,62,-1,64,66,68,70,-1,72,74,-1,76,78,80,82,84,-1,-1,86,88,90,92,-1,94,96,98,100,102,-1,-1,-1,-1,-1,-1,-1,-1,-1,-1,-1,-1,-1,-1,-1,-1,-1,-1,-1,-1,-1,-1,-1,-1,-1,-1,-1,-1,-1,-1,-1,-1,-1,-1,-1,-1,-1,-1,-1,-1,-1,-1,-1,-1],"split_conditions":[1.9171478E1,1.7309975E1,5.163249E1,8.8E0,2.2E1,-1.9501668E0,1.7185873E2,1.7287498E1,1.6481083E1,3.7E1,2.6778653E2,1.4E1,1E1,1.0999999E1,8.000001E-1,7.4E1,-2.8335E0,1.5339368E2,1.3237039E1,2.8E1,4.5E1,3E-1,5.499834E0,5.8737373E-1,-3.521147E-2,1E1,3.35E1,1.2009584E2,2.167487E1,1.9469975E1,1.7865529E2,6.4352508E0,3.2E1,-2.4126298E0,2.6E1,1.25060835E1,3.0628986E2,1.95665E1,2.464642E0,2E1,2E-1,2.1643996E0,1.7786331E1,1.7654688E1,4E-1,-1.6585001E0,3.9E0,-4.173433E-1,7.8179604E-1,2.2366402E1,1.2E1,1.4243583E1,4.3E1,-1.6919765E0,2.31E1,1.1479E1,2.4290553E2,2.6999996E0,2.9179993E1,1.0753005E-1,-1.2574667E-1,3.0583787E0,4.4402868E-1,-5.967806E-1,1.362216E-1,1.3075533E0,1.7135525E-1,-6.036122E-1,1.3299336E0,4.1244915E-1,1.6085752E0,2.18746E-1,-6.196031E-1,-5.733599E-1,-2.1171978E0,3.836277E-1,-4.817612E-1,2.355468E0,7.094823E-1,-1.2495017E0,5.399279E-1,-7.237393E-1,5.305973E-1,-9.5796907E-1,5.115173E-1,-6.80868E-1,-1.1296018E0,8.827143E-2,-1.9701292E-1,-4.682748E-1,1.2988747E0,1.2413481E0,6.9388584E-3,-5.9858334E-1,-7.6617055E-2,-1.6983019E0,-5.584637E-1,4.459975E-1,-2.5730941E-2,4.428546E-1,-2.0876377E0,-3.839682E-1,2.5705618E-1],"split_indices":[5,5,6,4,2,3,6,5,3,0,6,0,1,4,4,1,3,6,5,0,0,4,3,0,0,0,4,6,5,5,6,3,0,0,0,3,6,3,0,1,4,0,5,5,4,3,4,0,0,5,0,3,0,0,4,3,6,4,5,0,0,0,0,0,0,0,0,0,0,0,0,0,0,0,0,0,0,0,0,0,0,0,0,0,0,0,0,0,0,0,0,0,0,0,0,0,0,0,0,0,0,0,0],"split_type":[0,0,0,0,0,0,0,0,0,0,0,0,0,0,0,0,0,0,0,0,0,0,0,0,0,0,0,0,0,0,0,0,0,0,0,0,0,0,0,0,0,0,0,0,0,0,0,0,0,0,0,0,0,0,0,0,0,0,0,0,0,0,0,0,0,0,0,0,0,0,0,0,0,0,0,0,0,0,0,0,0,0,0,0,0,0,0,0,0,0,0,0,0,0,0,0,0,0,0,0,0,0,0],"sum_hessian":[1.68E3,1.089E3,5.91E2,8.58E2,2.31E2,3.3E1,5.58E2,8.26E2,3.2E1,1.09E2,1.22E2,2E0,3.1E1,7.9E1,4.79E2,8.21E2,5E0,2.1E1,1.1E1,1.01E2,8E0,8.3E1,3.9E1,1E0,1E0,2E0,2.9E1,7.1E1,8E0,2.85E2,1.94E2,8.14E2,7E0,2E0,3E0,8E0,1.3E1,8E0,3E0,9.2E1,9E0,3E0,5E0,3.8E1,4.5E1,2.8E1,1.1E1,1E0,1E0,2.7E1,2E0,2.9E1,4.2E1,3E0,5E0,1.1E1,2.74E2,6E0,1.88E2,3.25E2,4.89E2,1E0,6E0,2E0,1E0,4E0,4E0,1.1E1,2E0,6E0,2E0,7.1E1,2.1E1,5E0,4E0,3E0,2E0,1.1E1,2.7E1,3E0,4.2E1,5E0,2.3E1,9E0,2E0,1.3E1,1.4E1,1E0,1E0,2E1,9E0,2.8E1,1.4E1,4E0,1E0,4E0,7E0,7.3E1,2.01E2,1E0,5E0,1.59E2,2.9E1],"tree_param":{"num_deleted":"0","num_feature":"7","num_nodes":"103","size_leaf_vector":"1"}},{"base_weights":[2.005662E-2,1.4560237E0,-8.692301E-3,1.9462014E0,-7.7529454E-1,-1.9066687E0,1.6961368E-2,-1.0944831E0,2.4560945E0,-2.822933E0,2.9222546E0,7.9725134E-1,-4.4542916E-2,-5.65928E-1,3.109935E-1,3.5274286E0,1.1134198E0,-1.618975E0,-5.8702207E0,1.4560223E0,-4.3068066E-1,5.443089E-1,3.8282914E0,-4.3725014E-1,7.0384726E-2,1.0663204E0,4.1017017E0,-4.9476957E-1,3.0721023E0,5.437832E-1,-1.9935604E0,-5.0813943E-1,-1.9472631E0,1.0842451E0,-1.8213342E0,5.380557E0,-3.2092783E-1,-2.718173E-1,-2.2134109E0,1.7104717E0,-2.615468E-2,3.876944E-2,4.0068188E-1,1.3343571E0,9.60228E-2,-6.7054784E-1,5.41323E-1,1.3948815E0,3.3628494E-1,-7.652505E-1,2.7001727E-1,-1.3633007E-1,5.1201236E-1,-8.934368E-1,7.4280375E-1,5.736111E-1,1.9156675E0,-9.330129E-1,-5.336086E-2,3.8591436E-1,-9.546989E-1,2.8723678E-1,1.8868562E0,-5.069852E-1,1.0405009E-2],"categories":[],"categories_nodes":[],"categories_segments":[],"categories_sizes":[],"default_left":[0,0,0,0,0,0,0,0,0,0,0,0,0,0,0,0,0,0,0,0,0,0,0,0,0,0,0,0,0,0,0,0,0,0,0,0,0,0,0,0,0,0,0,0,0,0,0,0,0,0,0,0,0,0,0,0,0,0,0,0,0,0,0,0,0],"id":14,"left_children":[1,3,5,7,-1,9,11,13,15,17,19,21,23,-1,-1,25,27,29,31,-1,-1,33,35,37,39,41,43,45,47,-1,49,-1,-1,51,53,55,-1,57,59,61,63,-1,-1,-1,-1,-1,-1,-1,-1,-1,-1,-1,-1,-1,-1,-1,-1,-1,-1,-1,-1,-1,-1,-1,-1],"loss_changes":[6.940854E1,7.0385574E1,8.0322235E1,4.9200882E1,0E0,1.0558988E2,7.816515E1,1.0394217E1,3.3472275E1,6.0203598E1,4.0630318E1,8.9150986E1,6.818147E1,0E0,0E0,1.5413162E1,4.24691E1,2.2894875E1,1.9663696E0,0E0,0E0,1.4375467E2,7.418358E1,9.9890045E1,1.8513605E2,8.3677673E-1,1.2975647E1,3.6044895E1,1.3255718E1,0E0,2.4871456E1,0E0,0E0,8.793267E1,1.1176739E2,1.2191635E1,0E0,8.317334E1,1.0243309E2,2.1810434E2,1.11909004E2,0E0,0E0,0E0,0E0,0E0,0E0,0E0,0E0,0E0,0E0,0E0,0E0,0E0,0E0,0E0,0E0,0E0,0E0,0E0,0E0,0E0,0E0,0E0,0E0],"parents":[2147483647,0,0,1,1,2,2,3,3,5,5,6,6,7,7,8,8,9,9,10,10,11,11,12,12,15,15,16,16,17,17,18,18,21,21,22,22,23,23,24,24,25,25,26,26,27,27,28,28,30,30,33,33,34,34,35,35,37,37,38,38,39,39,40,40],"right_children":[2,4,6,8,-1,10,12,14,16,18,20,22,24,-1,-1,26,28,30,32,-1,-1,34,36,38,40,42,44,46,48,-1,50,-1,-1,52,54,56,-1,58,60,62,64,-1,-1,-1,-1,-1,-1,-1,-1,-1,-1,-1,-1,-1,-1,-1,-1,-1,-1,-1,-1,-1,-1,-1,-1],"split_conditions":[9.107359E0,3.199698E2,9.826088E0,1.1E1,-7.7529454E-1,4.3E1,1.1901798E1,5E-1,3E1,3.8E1,4.9E1,2.8000002E0,2.2560835E0,-5.65928E-1,3.109935E-1,8.633059E1,4.6E1,1.0873333E0,5.4358345E-1,1.4560223E0,-4.3068066E-1,6E-1,3.1E1,6.7E0,2.837333E0,2.3E1,1.8062332E1,1E-1,3.8E1,5.437832E-1,3.5E1,-5.0813943E-1,-1.9472631E0,1.5E1,3.9E1,1.4E1,-3.2092783E-1,1.2245294E1,-2.8335E0,2.8206666E0,3.2873328E0,3.876944E-2,4.0068188E-1,1.3343571E0,9.60228E-2,-6.7054784E-1,5.41323E-1,1.3948815E0,3.3628494E-1,-7.652505E-1,2.7001727E-1,-1.3633007E-1,5.1201236E-1,-8.934368E-1,7.4280375E-1,5.736111E-1,1.9156675E0,-9.330129E-1,-5.336086E-2,3.8591436E-1,-9.546989E-1,2.8723678E-1,1.8868562E0,-5.069852E-1,1.0405009E-2],"split_indices":[5,6,5,2,0,0,5,4,1,0,0,4,3,0,0,6,0,3,3,0,0,4,0,4,3,0,3,4,1,0,0,0,0,2,0,0,0,5,3,3,3,0,0,0,0,0,0,0,0,0,0,0,0,0,0,0,0,0,0,0,0,0,0,0,0],"split_type":[0,0,0,0,0,0,0,0,0,0,0,0,0,0,0,0,0,0,0,0,0,0,0,0,0,0,0,0,0,0,0,0,0,0,0,0,0,0,0,0,0,0,0,0,0,0,0,0,0,0,0,0,0,0,0,0,0,0,0,0,0,0,0,0,0],"sum_hessian":[1.68E3,3.2E1,1.648E3,2.9E1,3E0,2.1E1,1.627E3,4E0,2.5E1,1.8E1,3E0,1.18E2,1.509E3,3E0,1E0,1.3E1,1.2E1,1.4E1,4E0,2E0,1E0,1.1E2,8E0,3.41E2,1.168E3,3E0,1E1,7E0,5E0,1E0,1.3E1,1E0,3E0,9E1,2E1,6E0,2E0,3.13E2,2.8E1,6.4E1,1.104E3,1E0,2E0,9E0,1E0,4E0,3E0,2E0,3E0,1.1E1,2E0,2.6E1,6.4E1,1.6E1,4E0,2E0,4E0,9E0,3.04E2,6E0,2.2E1,5.6E1,8E0,3.8E1,1.066E3],"tree_param":{"num_deleted":"0","num_feature":"7","num_nodes":"65","size_leaf_vector":"1"}},{"base_weights":[1.6166672E-2,-8.858942E-1,5.2998263E-2,-1.0841271E0,1.0915114E0,1.2385999E-1,-4.763306E-1,1.3707896E-1,-1.4940515E0,8.584044E-2,2.1677647E0,-2.3061917E0,-1.9954704E-1,8.674402E-1,-1.0302143E0,4.988893E-1,-1.6674645E0,1.1262088E-1,-4.5913825E0,-8.847547E-1,3.5735931E0,7.8561103E-1,-4.4197674E0,3.458273E0,-5.050445E-1,8.9836305E-1,6.2023588E-2,-4.570922E-1,-5.2811563E-1,6.5645313E-1,-1.8017715E0,2.7833242E-2,6.530509E-1,-6.4529147E0,6.6214305E-1,-1.8526794E0,5.0059634E-1,4.2711105E0,-1.337698E0,-9.4645804E-1,1.7159845E0,-2.4203818E0,-7.9344625E0,5.095848E0,-1.5002339E0,-2.7152193E0,-2.663377E-1,2.0890409E-1,-4.3162167E-1,-1.778633E-1,-4.0360168E-2,-6.1135656E-1,-6.871573E-2,2.7094685E-2,-6.8019336E-1,3.161469E-1,-5.371836E-1,-5.0040152E-2,-2.3030334E0,3.9016402E-1,-9.2199616E-2,-7.12719E-1,-1.090106E-1,-3.2333842E-1,1.5336676E0,-6.1082184E-1,8.857727E-3,-5.589484E-1,4.524006E-1,9.0259844E-1,-9.792457E-1,-6.436349E-1,-2.653606E0,-2.092538E-1,1.7451171E0,-6.537443E-1,8.0476E-2,-1.0786686E0,1.81384E-1,5.9202397E-1,-1.5276891E-1],"categories":[],"categories_nodes":[],"categories_segments":[],"categories_sizes":[],"default_left":[0,0,0,0,0,0,0,0,0,0,0,0,0,0,0,0,0,0,0,0,0,0,0,0,0,0,0,0,0,0,0,0,0,0,0,0,0,0,0,0,0,0,0,0,0,0,0,0,0,0,0,0,0,0,0,0,0,0,0,0,0,0,0,0,0,0,0,0,0,0,0,0,0,0,0,0,0,0,0,0,0],"id":15,"left_children":[1,3,5,7,-1,9,11,13,15,17,19,21,23,25,27,-1,29,31,33,35,37,39,41,43,45,-1,47,-1,49,-1,51,53,55,57,59,61,-1,63,65,67,-1,69,71,73,75,77,79,-1,-1,-1,-1,-1,-1,-1,-1,-1,-1,-1,-1,-1,-1,-1,-1,-1,-1,-1,-1,-1,-1,-1,-1,-1,-1,-1,-1,-1,-1,-1,-1,-1,-1],"loss_changes":[5.589706E1,6.3137085E1,6.067379E1,3.2243347E1,0E0,1.10626E2,9.627663E1,1.5386929E1,2.9051369E1,1.7600371E2,1.1473604E2,1.668412E2,1.8836153E2,1.8659515E1,9.295831E-1,0E0,2.7763222E1,6.38574E1,8.250961E1,2.533505E1,6.737627E1,9.942642E1,8.620404E1,1.1320404E2,8.105232E1,0E0,9.569579E0,0E0,4.7683597E-2,0E0,1.6241425E1,1.7315245E2,1.8698447E2,4.4879562E1,2.2564487E0,4.589628E0,0E0,7.749463E1,2.9246202E0,2.3059753E1,0E0,6.021026E1,7.3885193E0,4.583969E1,5.387164E0,4.6012787E1,7.7711395E1,0E0,0E0,0E0,0E0,0E0,0E0,0E0,0E0,0E0,0E0,0E0,0E0,0E0,0E0,0E0,0E0,0E0,0E0,0E0,0E0,0E0,0E0,0E0,0E0,0E0,0E0,0E0,0E0,0E0,0E0,0E0,0E0,0E0,0E0],"parents":[2147483647,0,0,1,1,2,2,3,3,5,5,6,6,7,7,8,8,9,9,10,10,11,11,12,12,13,13,14,14,16,16,17,17,18,18,19,19,20,20,21,21,22,22,23,23,24,24,26,26,28,28,30,30,31,31,32,32,33,33,34,34,35,35,37,37,38,38,39,39,41,41,42,42,43,43,44,44,45,45,46,46],"right_children":[2,4,6,8,-1,10,12,14,16,18,20,22,24,26,28,-1,30,32,34,36,38,40,42,44,46,-1,48,-1,50,-1,52,54,56,58,60,62,-1,64,66,68,-1,70,72,74,76,78,80,-1,-1,-1,-1,-1,-1,-1,-1,-1,-1,-1,-1,-1,-1,-1,-1,-1,-1,-1,-1,-1,-1,-1,-1,-1,-1,-1,-1,-1,-1,-1,-1,-1,-1],"split_conditions":[9E0,3.5577484E2,2.440046E1,4.183166E0,1.0915114E0,2.3893261E1,1.8798744E2,1.7E1,3.1717312E1,2.3803596E1,1.6808882E2,1.9E1,1.9960413E2,-1.3459998E0,1.5E1,4.988893E-1,5E0,2.1188072E1,1.9E1,1.5064415E1,3.5E1,2.1E1,1.25060835E1,2.8E1,2.2117912E2,8.9836305E-1,2.0858265E1,-4.570922E-1,3.1E1,6.5645313E-1,1.5E1,2.0858265E1,7.499999E0,1.8521817E2,1.1E1,9.664418E0,5.0059634E-1,1.3E1,2.9E1,1.3168583E1,1.7159845E0,1.4E1,1.1E1,1.5E1,2.7E1,3.2E1,2.2823051E2,2.0890409E-1,-4.3162167E-1,-1.778633E-1,-4.0360168E-2,-6.1135656E-1,-6.871573E-2,2.7094685E-2,-6.8019336E-1,3.161469E-1,-5.371836E-1,-5.0040152E-2,-2.3030334E0,3.9016402E-1,-9.2199616E-2,-7.12719E-1,-1.090106E-1,-3.2333842E-1,1.5336676E0,-6.1082184E-1,8.857727E-3,-5.589484E-1,4.524006E-1,9.0259844E-1,-9.792457E-1,-6.436349E-1,-2.653606E0,-2.092538E-1,1.7451171E0,-6.537443E-1,8.0476E-2,-1.0786686E0,1.81384E-1,5.9202397E-1,-1.5276891E-1],"split_indices":[0,6,5,3,0,5,6,2,6,5,6,1,6,3,1,0,0,5,1,3,1,0,3,2,6,0,5,0,2,0,1,5,4,6,0,3,0,2,0,3,0,0,0,0,0,1,6,0,0,0,0,0,0,0,0,0,0,0,0,0,0,0,0,0,0,0,0,0,0,0,0,0,0,0,0,0,0,0,0,0,0],"split_type":[0,0,0,0,0,0,0,0,0,0,0,0,0,0,0,0,0,0,0,0,0,0,0,0,0,0,0,0,0,0,0,0,0,0,0,0,0,0,0,0,0,0,0,0,0,0,0,0,0,0,0,0,0,0,0,0,0,0,0,0,0,0,0,0,0,0,0,0,0,0,0,0,0,0,0,0,0,0,0,0,0],"sum_hessian":[1.68E3,6.5E1,1.615E3,6.3E1,2E0,1.425E3,1.9E2,1.6E1,4.7E1,1.4E3,2.5E1,2.4E1,1.66E2,1E1,6E0,2E0,4.5E1,1.393E3,7E0,8E0,1.7E1,1E1,1.4E1,1.2E1,1.54E2,2E0,8E0,2E0,4E0,1E0,4.4E1,1.205E3,1.88E2,5E0,2E0,6E0,2E0,1.5E1,2E0,8E0,2E0,1E1,4E0,9E0,3E0,1.4E1,1.4E2,6E0,2E0,3E0,1E0,3.8E1,6E0,1.174E3,3.1E1,1.62E2,2.6E1,1E0,4E0,1E0,1E0,4E0,2E0,2E0,1.3E1,1E0,1E0,6E0,2E0,1E0,9E0,1E0,3E0,1E0,8E0,2E0,1E0,1.1E1,3E0,1.3E1,1.27E2],"tree_param":{"num_deleted":"0","num_feature":"7","num_nodes":"81","size_leaf_vector":"1"}},{"base_weights":[9.927877E-3,-5.407846E-2,4.6346352E-1,-9.7103454E-2,6.7748123E-1,3.223258E0,1.5272339E-1,-4.466412E-2,-2.0177271E0,1.0885409E-1,3.4316092E0,4.1894817E0,-1.9305632E0,-1.9392072E-1,9.9449766E-1,-1.8383147E-2,-1.998655E0,-1.0225084E0,-6.136878E0,-1.8550669E-1,4.9385934E0,6.459596E-1,4.1326084E0,2.0322406E0,7.2891116E0,-1.4665647E-1,-6.7445433E-1,3.972527E-1,-1.4542471E0,4.897989E0,3.2319713E-1,-4.559583E-2,1.6930038E0,2.8364856E0,-4.0765157E0,-1.9025449E0,2.2665517E0,-2.2628567E0,-7.2339153E0,3.0085866E0,-4.4010282E-1,2.0681574E0,-1.3908005E-1,-1.1734057E-2,2.6620656E-1,1.9016601E0,2.512903E0,-1.7781202E-1,4.271929E0,2.4583566E0,2.7849713E-1,2.2379906E0,-3.2299262E-1,-2.4553711E0,1.6813293E0,1.1006241E-1,5.4928803E0,-6.3450384E-1,1.3073357E0,-3.2118514E-2,2.0450874E-1,1.5063334E0,8.106022E-3,-4.948683E-2,1.7678738E0,-2.306457E0,-6.672584E-1,3.9335635E-1,-6.717024E-1,1.2124482E0,-1.2574651E0,-1.0834575E0,6.5171815E-2,-6.6182417E-1,-2.3818064E0,-3.659287E-1,1.3111844E0,1.6178015E-1,-3.7875107E-1,3.0927086E-2,9.896977E-1,-3.9682984E-1,5.3691465E-1,2.3224984E-1,1.4449944E0,2.1378465E0,4.6011618E-1,-4.337451E-1,4.8635545E-1,-5.3107657E-2,-1.3767849E0,1.4712949E0,1.2605578E-1,4.3616983E-1,1.7771182E0,1.6714744E-1,-7.433138E-1,1.2473441E-1,1.0239426E0],"categories":[],"categories_nodes":[],"categories_segments":[],"categories_sizes":[],"default_left":[0,0,0,0,0,0,0,0,0,0,0,0,0,0,0,0,0,0,0,0,0,0,0,0,0,0,0,0,0,0,0,0,0,0,0,0,0,0,0,0,0,0,0,0,0,0,0,0,0,0,0,0,0,0,0,0,0,0,0,0,0,0,0,0,0,0,0,0,0,0,0,0,0,0,0,0,0,0,0,0,0,0,0,0,0,0,0,0,0,0,0,0,0,0,0,0,0,0,0],"id":16,"left_children":[1,3,5,7,9,11,13,15,17,19,21,23,25,27,29,31,33,35,37,39,41,43,45,47,49,-1,-1,51,53,55,57,59,61,63,65,67,69,71,73,75,77,-1,-1,-1,-1,-1,79,81,83,-1,-1,85,87,89,91,-1,93,95,97,-1,-1,-1,-1,-1,-1,-1,-1,-1,-1,-1,-1,-1,-1,-1,-1,-1,-1,-1,-1,-1,-1,-1,-1,-1,-1,-1,-1,-1,-1,-1,-1,-1,-1,-1,-1,-1,-1,-1,-1],"loss_changes":[4.882308E1,4.6460453E1,1.7788412E2,1.4020761E2,1.2804436E2,1.1266269E2,5.5050514E1,6.964898E1,1.4540488E2,9.901246E1,2.4668839E1,1.0554645E2,7.3261356E-1,1.0041728E2,1.4253984E2,6.2482906E1,1.9240442E2,9.404149E1,1.338031E1,5.499554E1,4.5446877E1,6.962019E-1,2.337941E1,6.0157547E1,3.2706696E1,0E0,0E0,1.22694885E2,1.3910962E2,1.954898E1,4.6070015E1,5.9081757E1,1.1630034E2,5.6014194E1,6.986972E1,2.9968323E1,9.717943E1,1.0819043E1,2.1929932E-1,3.412676E1,5.0617767E1,0E0,0E0,0E0,0E0,0E0,1.4814526E1,1.8136477E1,7.702919E0,0E0,0E0,7.857776E1,1.4860289E2,1.5962663E2,4.26504E1,0E0,3.5687714E0,5.6292526E1,4.3639458E1,0E0,0E0,0E0,0E0,0E0,0E0,0E0,0E0,0E0,0E0,0E0,0E0,0E0,0E0,0E0,0E0,0E0,0E0,0E0,0E0,0E0,0E0,0E0,0E0,0E0,0E0,0E0,0E0,0E0,0E0,0E0,0E0,0E0,0E0,0E0,0E0,0E0,0E0,0E0,0E0],"parents":[2147483647,0,0,1,1,2,2,3,3,4,4,5,5,6,6,7,7,8,8,9,9,10,10,11,11,12,12,13,13,14,14,15,15,16,16,17,17,18,18,19,19,20,20,21,21,22,22,23,23,24,24,27,27,28,28,29,29,30,30,31,31,32,32,33,33,34,34,35,35,36,36,37,37,38,38,39,39,40,40,46,46,47,47,48,48,51,51,52,52,53,53,54,54,56,56,57,57,58,58],"right_children":[2,4,6,8,10,12,14,16,18,20,22,24,26,28,30,32,34,36,38,40,42,44,46,48,50,-1,-1,52,54,56,58,60,62,64,66,68,70,72,74,76,78,-1,-1,-1,-1,-1,80,82,84,-1,-1,86,88,90,92,-1,94,96,98,-1,-1,-1,-1,-1,-1,-1,-1,-1,-1,-1,-1,-1,-1,-1,-1,-1,-1,-1,-1,-1,-1,-1,-1,-1,-1,-1,-1,-1,-1,-1,-1,-1,-1,-1,-1,-1,-1,-1,-1],"split_conditions":[4.3E1,8.6E0,2.8E1,7.0999994E0,1.6022749E1,3.7000003E0,1.2000002E0,4.2E1,3.2E1,3.1565245E1,1.5E1,3.5789998E0,4.8E1,1E-1,1.6000001E0,6.0000005E0,1.2696917E2,2.5E1,1.5E1,8.9E0,2.3E1,1E1,1.9392032E2,2.6E1,2.6E1,-1.4665647E-1,-6.7445433E-1,3.8E1,6.3E1,2.2E1,3.9E1,4.4E1,6.3E0,7.780178E1,-5.355833E-1,1.7373333E0,4.4E1,3.3E1,1.8E1,1.4E1,2.0188908E1,2.0681574E0,-1.3908005E-1,-1.1734057E-2,2.6620656E-1,1.9016601E0,1.0200001E1,1.8079027E1,4.4E1,2.4583566E0,2.7849713E-1,2.3E1,8.9956665E0,1.6707675E2,1.44E1,1.1006241E-1,1.1165805E1,3.2E1,5.7E1,-3.2118514E-2,2.0450874E-1,1.5063334E0,8.106022E-3,-4.948683E-2,1.7678738E0,-2.306457E0,-6.672584E-1,3.9335635E-1,-6.717024E-1,1.2124482E0,-1.2574651E0,-1.0834575E0,6.5171815E-2,-6.6182417E-1,-2.3818064E0,-3.659287E-1,1.3111844E0,1.6178015E-1,-3.7875107E-1,3.0927086E-2,9.896977E-1,-3.9682984E-1,5.3691465E-1,2.3224984E-1,1.4449944E0,2.1378465E0,4.6011618E-1,-4.337451E-1,4.8635545E-1,-5.3107657E-2,-1.3767849E0,1.4712949E0,1.2605578E-1,4.3616983E-1,1.7771182E0,1.6714744E-1,-7.433138E-1,1.2473441E-1,1.0239426E0],"split_indices":[0,4,1,4,3,4,4,0,0,5,0,3,0,4,4,4,6,0,1,4,1,0,6,1,1,0,0,1,1,2,2,2,4,6,3,3,2,0,2,0,5,0,0,0,0,0,4,5,0,0,0,2,3,6,5,0,5,2,0,0,0,0,0,0,0,0,0,0,0,0,0,0,0,0,0,0,0,0,0,0,0,0,0,0,0,0,0,0,0,0,0,0,0,0,0,0,0,0,0],"split_type":[0,0,0,0,0,0,0,0,0,0,0,0,0,0,0,0,0,0,0,0,0,0,0,0,0,0,0,0,0,0,0,0,0,0,0,0,0,0,0,0,0,0,0,0,0,0,0,0,0,0,0,0,0,0,0,0,0,0,0,0,0,0,0,0,0,0,0,0,0,0,0,0,0,0,0,0,0,0,0,0,0,0,0,0,0,0,0,0,0,0,0,0,0,0,0,0,0,0,0],"sum_hessian":[1.68E3,1.473E3,2.07E2,1.392E3,8.1E1,2E1,1.87E2,1.356E3,3.6E1,6.8E1,1.3E1,1.7E1,3E0,1.33E2,5.4E1,1.339E3,1.7E1,3E1,6E0,6.5E1,3E0,3E0,1E1,1.1E1,6E0,1E0,2E0,9.1E1,4.2E1,7E0,4.7E1,1.319E3,2E1,5E0,1.2E1,2.4E1,6E0,2E0,4E0,4E0,6.1E1,2E0,1E0,1E0,2E0,3E0,7E0,6E0,5E0,5E0,1E0,2.5E1,6.6E1,3.2E1,1E1,1E0,6E0,2.4E1,2.3E1,1.217E3,1.02E2,6E0,1.4E1,3E0,2E0,3E0,9E0,2E0,2.2E1,5E0,1E0,1E0,1E0,1E0,3E0,1E0,3E0,2.8E1,3.3E1,2E0,5E0,4E0,2E0,1E0,4E0,2E0,2.3E1,4.2E1,2.4E1,1.6E1,1.6E1,2E0,8E0,1E0,5E0,1.5E1,9E0,1.7E1,6E0],"tree_param":{"num_deleted":"0","num_feature":"7","num_nodes":"99","size_leaf_vector":"1"}},{"base_weights":[1.3687827E-2,-6.1182535E-1,5.575046E-2,3.4979784E-1,-1.0513234E0,6.1138886E-1,-9.783725E-4,3.5168452E0,-6.0154206E-1,-1.2664564E0,2.127775E0,-6.3264006E-1,2.456527E0,2.1268588E-1,-3.6679563E-1,3.292761E-1,1.2421001E0,2.2245115E-1,-2.0245757E0,-9.91513E-1,-4.587428E0,1.0917304E0,-9.280936E-2,2.2470175E-1,-2.3846354E0,6.2658477E0,1.7786686E0,-4.4588327E0,2.5411227E-1,-3.1580565E0,-2.2178653E-1,-2.7443128E0,2.3598747E0,8.8919383E-1,-2.8641672E0,-2.0848043E0,-4.5927683E-1,-1.9030489E0,-3.9066544E-1,2.1072537E-1,-2.5248957E-1,2.8848809E-3,1.9967847E0,-4.3742256E0,5.9512682E-2,1.1659915E0,6.8942046E0,-2.0023303E0,-1.7945855E0,7.476226E-1,-1.0185327E-1,-1.3455498E0,-1.9296525E0,-5.311347E-1,8.505756E-1,-1.2350321E-3,-1.316282E0,1.2086252E0,2.4920875E-1,4.6466735E-1,-6.453009E-2,-1.4717102E-1,-9.3995136E-1,-8.5242116E-1,-2.2808798E-1,2.7736706E-1,-2.971518E-1,-2.6110592E-1,2.3006338E-1,-1.7128087E0,-5.5259943E-1,8.9969367E-1,-2.04094E-1,1.5356842E-1,1.43439E0,2.4850655E0,-7.879257E-3,-6.32848E-1,-8.024311E-2,4.1803297E-1,-1.4125404E-1,-7.558925E-2,3.3101347E-1,-6.655959E-1,4.1047478E-1,-1.5117012E-2,-3.8358912E-1,6.2391482E-2,7.630975E-1],"categories":[],"categories_nodes":[],"categories_segments":[],"categories_sizes":[],"default_left":[0,0,0,0,0,0,0,0,0,0,0,0,0,0,0,0,0,0,0,0,0,0,0,0,0,0,0,0,0,0,0,0,0,0,0,0,0,0,0,0,0,0,0,0,0,0,0,0,0,0,0,0,0,0,0,0,0,0,0,0,0,0,0,0,0,0,0,0,0,0,0,0,0,0,0,0,0,0,0,0,0,0,0,0,0,0,0,0,0],"id":17,"left_children":[1,3,5,7,9,11,13,15,17,19,21,23,25,27,29,-1,-1,31,33,35,37,-1,39,41,43,-1,45,47,49,51,53,55,57,59,61,63,65,-1,-1,-1,-1,67,-1,69,71,73,75,-1,77,79,81,83,-1,85,87,-1,-1,-1,-1,-1,-1,-1,-1,-1,-1,-1,-1,-1,-1,-1,-1,-1,-1,-1,-1,-1,-1,-1,-1,-1,-1,-1,-1,-1,-1,-1,-1,-1,-1],"loss_changes":[4.4262447E1,4.51667E1,4.9677246E1,1.0455544E2,5.262152E1,3.366833E2,1.1192793E2,7.5226517E0,3.210976E1,5.845397E1,1.7117876E1,1.3271701E2,6.999186E2,1.7607886E2,2.1301192E2,0E0,0E0,1.20618385E2,2.701056E1,3.6865288E1,2.058464E1,0E0,2.3776293E0,8.557434E1,1.4128305E2,0E0,1.7374338E2,3.5245453E1,1.5765453E2,1.4563858E2,1.6731361E2,3.6005524E1,2.4725441E1,2.5186665E0,3.5710144E0,1.8884323E1,3.399675E1,0E0,0E0,0E0,0E0,4.0029167E1,0E0,4.35773E1,3.2485954E1,1.2288485E2,5.7907135E1,0E0,1.84025E0,2.9653525E2,9.47174E1,4.5685352E1,0E0,1.404432E2,1.22412926E2,0E0,0E0,0E0,0E0,0E0,0E0,0E0,0E0,0E0,0E0,0E0,0E0,0E0,0E0,0E0,0E0,0E0,0E0,0E0,0E0,0E0,0E0,0E0,0E0,0E0,0E0,0E0,0E0,0E0,0E0,0E0,0E0,0E0,0E0],"parents":[2147483647,0,0,1,1,2,2,3,3,4,4,5,5,6,6,7,7,8,8,9,9,10,10,11,11,12,12,13,13,14,14,17,17,18,18,19,19,20,20,22,22,23,23,24,24,26,26,27,27,28,28,29,29,30,30,31,31,32,32,33,33,34,34,35,35,36,36,41,41,43,43,44,44,45,45,46,46,48,48,49,49,50,50,51,51,53,53,54,54],"right_children":[2,4,6,8,10,12,14,16,18,20,22,24,26,28,30,-1,-1,32,34,36,38,-1,40,42,44,-1,46,48,50,52,54,56,58,60,62,64,66,-1,-1,-1,-1,68,-1,70,72,74,76,-1,78,80,82,84,-1,86,88,-1,-1,-1,-1,-1,-1,-1,-1,-1,-1,-1,-1,-1,-1,-1,-1,-1,-1,-1,-1,-1,-1,-1,-1,-1,-1,-1,-1,-1,-1,-1,-1,-1,-1],"split_conditions":[4.568013E1,1.5964287E1,1.0216809E2,1.3E1,1.8887335E1,1.3722749E1,1.1479E1,8E0,1.9171478E1,1.6933167E1,2.4E1,2.7E1,1.38081665E1,1.0684727E2,1.19852495E1,3.292761E-1,1.2421001E0,9.248333E-1,-1.9501668E0,2.509263E1,2.7E1,1.0917304E0,1.5E1,3.3E1,4E1,6.2658477E0,4.3E1,1.3722565E1,2.3999753E2,2.6E1,2.3999996E0,7.908339E0,5.7477493E0,1.4E1,1.3E1,1E-1,3.1717312E1,-1.9030489E0,-3.9066544E-1,2.1072537E-1,-2.5248957E-1,2E-1,1.9967847E0,7.780178E1,4.4E1,1.9586117E1,5.1E1,-2.0023303E0,2.7E1,2.1000001E0,4.3E1,2.1E1,-1.9296525E0,2.4E1,1.8062332E1,-1.2350321E-3,-1.316282E0,1.2086252E0,2.4920875E-1,4.6466735E-1,-6.453009E-2,-1.4717102E-1,-9.3995136E-1,-8.5242116E-1,-2.2808798E-1,2.7736706E-1,-2.971518E-1,-2.6110592E-1,2.3006338E-1,-1.7128087E0,-5.5259943E-1,8.9969367E-1,-2.04094E-1,1.5356842E-1,1.43439E0,2.4850655E0,-7.879257E-3,-6.32848E-1,-8.024311E-2,4.1803297E-1,-1.4125404E-1,-7.558925E-2,3.3101347E-1,-6.655959E-1,4.1047478E-1,-1.5117012E-2,-3.8358912E-1,6.2391482E-2,7.630975E-1],"split_indices":[6,6,6,2,3,3,3,0,5,3,2,0,3,6,3,0,0,3,3,6,0,0,0,1,0,0,2,5,6,0,4,6,3,0,1,4,6,0,0,0,0,4,0,6,0,5,0,0,1,4,0,0,0,1,3,0,0,0,0,0,0,0,0,0,0,0,0,0,0,0,0,0,0,0,0,0,0,0,0,0,0,0,0,0,0,0,0,0,0],"split_type":[0,0,0,0,0,0,0,0,0,0,0,0,0,0,0,0,0,0,0,0,0,0,0,0,0,0,0,0,0,0,0,0,0,0,0,0,0,0,0,0,0,0,0,0,0,0,0,0,0,0,0,0,0,0,0,0,0,0,0,0,0,0,0,0,0,0,0,0,0,0,0,0,0,0,0,0,0,0,0,0,0,0,0,0,0,0,0,0,0],"sum_hessian":[1.68E3,1.05E2,1.575E3,3.3E1,7.2E1,1.45E2,1.43E3,7E0,2.6E1,6.8E1,4E0,8.7E1,5.8E1,9.03E2,5.27E2,2E0,5E0,1.7E1,9E0,6.4E1,4E0,2E0,2E0,5.9E1,2.8E1,1E0,5.7E1,7E0,8.96E2,2.5E1,5.02E2,7E0,1E1,2E0,7E0,2E1,4.4E1,2E0,2E0,1E0,1E0,5.8E1,1E0,1.5E1,1.3E1,5.2E1,5E0,3E0,4E0,3.75E2,5.21E2,1.7E1,8E0,3.9E2,1.12E2,3E0,4E0,4E0,6E0,1E0,1E0,1E0,6E0,1.2E1,8E0,1.2E1,3.2E1,2.7E1,3.1E1,9E0,6E0,2E0,1.1E1,4.5E1,7E0,4E0,1E0,3E0,1E0,2.45E2,1.3E2,4.64E2,5.7E1,1.3E1,4E0,2.38E2,1.52E2,8.2E1,3E1],"tree_param":{"num_deleted":"0","num_feature":"7","num_nodes":"89","size_leaf_vector":"1"}},{"base_weights":[1.2833546E-2,3.9073184E-1,-4.344696E-2,6.9492364E-1,-6.189731E-1,-6.4955753E-1,1.2138019E-2,5.6367E-1,1.2434481E0,-1.8535355E0,7.3911333E-1,-1.5435863E0,5.15159E-3,-3.0999497E-1,1.18758716E-1,3.556567E-1,2.2195737E0,-2.8657045E0,-1.2077106E-1,2.5691645E0,-8.822957E-1,-4.6458128E-1,-4.43913E0,-1.5839981E0,1.3904321E0,-7.937611E-1,1.7273676E-1,3.5331373E0,3.907334E-2,5.3327906E-1,-2.1133354E0,2.004059E0,1.5642313E0,-4.3188214E0,5.181467E-1,1.0438088E0,-8.287207E-1,3.4047763E0,-3.2177907E-1,-2.8026912E-1,-6.951885E-1,3.4098654E0,-1.134643E0,-1.7064213E0,-5.3615713E0,-3.0643702E0,-3.9451915E-1,5.3991413E0,9.063968E-1,-6.0597986E-1,-4.999335E0,4.364021E0,-9.1952406E-2,8.0485135E-1,6.999424E0,-1.437368E-1,5.0816697E-1,-2.008585E-2,3.6568943E-1,-1.0978886E0,3.3630347E-1,8.1175923E-1,7.463856E-2,-1.5063498E0,-1.6141969E-1,5.348933E-1,-8.7090117E-1,-3.6313498E-1,1.3963929E-1,2.8529826E-1,1.4646397E0,1.6916485E-1,-2.0019343E-1,1.9576672E0,6.618905E-2,-5.689024E-1,1.2594964E-1,-1.6235353E-2,-8.3697534E-1,-1.890669E0,-3.1978723E-1,-1.0695851E0,5.922624E-1,1.9297808E-1,-4.489874E-1,2.0558417E0,1.5572233E-1,8.459837E-1,-1.4508729E-2,-9.632202E-1,-1.0081989E-1,-6.326039E-1,-1.7201583E0,1.9862298E0,-9.3259186E-1,1.2780166E0,-9.612015E-2,2.0014362E0,-4.2048803E-1,9.704476E-2,2.311576E0,-1.3740065E-2,-4.486595E-1,2.0771296E-1,-6.5426075E-1],"categories":[],"categories_nodes":[],"categories_segments":[],"categories_sizes":[],"default_left":[0,0,0,0,0,0,0,0,0,0,0,0,0,0,0,0,0,0,0,0,0,0,0,0,0,0,0,0,0,0,0,0,0,0,0,0,0,0,0,0,0,0,0,0,0,0,0,0,0,0,0,0,0,0,0,0,0,0,0,0,0,0,0,0,0,0,0,0,